{"learner":{"attributes":{"scikit_learn":"{\"_estimator_type\": \"regressor\"}"},"feature_names":[],"feature_types":[],"gradient_booster":{"model":{"cats":{"enc":[],"feature_segments":[],"sorted_idx":[]},"gbtree_model_param":{"num_parallel_tree":"1","num_trees":"60"},"iteration_indptr":[0,1,2,3,4,5,6,7,8,9,10,11,12,13,14,15,16,17,18,19,20,21,22,23,24,25,26,27,28,29,30,31,32,33,34,35,36,37,38,39,40,41,42,43,44,45,46,47,48,49,50,51,52,53,54,55,56,57,58,59,60],"tree_info":[0,0,0,0,0,0,0,0,0,0,0,0,0,0,0,0,0,0,0,0,0,0,0,0,0,0,0,0,0,0,0,0,0,0,0,0,0,0,0,0,0,0,0,0,0,0,0,0,0,0,0,0,0,0,0,0,0,0,0,0],"trees":[{"base_weights":[-6.1118747E-3,-4.0426415E-1,2.973254E-1,-6.3035953E-1,-1.7202502E-1,9.472126E-2,3.7656286E-1,-6.935054E-1,-1.2071246E-2,-3.2490486E-1,1.4982308E-2,-1.0420319E-1,1.7583063E-1,3.037815E-1,3.2295845E-2,-4.5453683E-2,-1.7914832E-2,-2.8430527E-2,-7.004242E-3,5.6794626E-3,-1.5065337E-2,-9.910008E-3,2.3705617E-4,6.271867E-3,1.6634477E-2,1.9413544E-2,3.1386137E-3],"categories":[],"categories_nodes":[],"categories_segments":[],"categories_sizes":[],"default_left":[0,0,0,0,0,0,0,0,0,0,0,0,0,0,0,0,0,0,0,0,0,0,0,0,0,0,0],"id":0,"left_children":[1,3,5,7,9,11,13,15,-1,17,19,21,23,25,-1,-1,-1,-1,-1,-1,-1,-1,-1,-1,-1,-1,-1],"loss_changes":[3.128966E1,5.6640453E0,2.2885761E0,1.2385731E0,1.6679355E0,7.465682E-1,9.0869904E-1,7.618847E-1,0E0,8.8149476E-1,6.4111644E-1,9.3613654E-2,1.7341632E-1,3.4910774E-1,0E0,0E0,0E0,0E0,0E0,0E0,0E0,0E0,0E0,0E0,0E0,0E0,0E0],"parents":[2147483647,0,0,1,1,2,2,3,3,4,4,5,5,6,6,7,7,9,9,10,10,11,11,12,12,13,13],"right_children":[2,4,6,8,10,12,14,16,-1,18,20,22,24,26,-1,-1,-1,-1,-1,-1,-1,-1,-1,-1,-1,-1,-1],"split_conditions":[2E0,5.68358E0,3E0,1.3799907E0,1E0,5.4510384E0,5.971262E0,1.0791551E0,-1.2071246E-2,1.7595425E-2,6.805433E-1,4.7596082E-1,3.4064326E-1,1.2445078E0,3.2295845E-2,-4.5453683E-2,-1.7914832E-2,-2.8430527E-2,-7.004242E-3,5.6794626E-3,-1.5065337E-2,-9.910008E-3,2.3705617E-4,6.271867E-3,1.6634477E-2,1.9413544E-2,3.1386137E-3],"split_indices":[0,2,0,430,0,2,2,316,0,427,213,390,114,408,0,0,0,0,0,0,0,0,0,0,0,0,0],"split_type":[0,0,0,0,0,0,0,0,0,0,0,0,0,0,0,0,0,0,0,0,0,0,0,0,0,0,0],"sum_hessian":[2.55E2,1.1E2,1.45E2,5.4E1,5.6E1,4.2E1,1.03E2,4.6E1,8E0,3E1,2.6E1,1.2E1,3E1,7.5E1,2.8E1,3.8E1,8E0,1.6E1,1.4E1,2.1E1,5E0,7E0,5E0,2E1,1E1,6.9E1,6E0],"tree_param":{"num_deleted":"0","num_feature":"455","num_nodes":"27","size_leaf_vector":"1"}},{"base_weights":[2.6330842E-2,-3.4379792E-1,2.8223628E-1,-6.1169344E-1,-1.547828E-1,1.81865E-1,4.410885E-1,-6.955529E-1,-1.4019058E-2,-3.323783E-1,-6.429365E-3,-5.7487786E-2,2.2264047E-1,2.6262146E-1,3.0397747E-2,-2.1623567E-2,-4.8047133E-2,-2.5681578E-2,-3.32862E-3,-5.3571453E-3,1.1278426E-2,-8.010214E-3,4.70344E-3,1.0011725E-2,2.0182738E-2,7.885996E-3,1.8782446E-2],"categories":[],"categories_nodes":[],"categories_segments":[],"categories_sizes":[],"default_left":[0,0,0,0,0,0,0,0,0,0,0,0,0,0,0,0,0,0,0,0,0,0,0,0,0,0,0],"id":1,"left_children":[1,3,5,7,9,11,13,15,-1,17,19,21,23,25,-1,-1,-1,-1,-1,-1,-1,-1,-1,-1,-1,-1,-1],"loss_changes":[2.501017E1,5.2793617E0,2.3268576E0,1.0698757E0,1.7346215E0,9.918103E-1,4.2400932E-1,6.5724564E-1,0E0,7.470608E-1,6.4565337E-1,1.8619336E-1,4.2699528E-1,5.000055E-2,0E0,0E0,0E0,0E0,0E0,0E0,0E0,0E0,0E0,0E0,0E0,0E0,0E0],"parents":[2147483647,0,0,1,1,2,2,3,3,4,4,5,5,6,6,7,7,9,9,10,10,11,11,12,12,13,13],"right_children":[2,4,6,8,10,12,14,16,-1,18,20,22,24,26,-1,-1,-1,-1,-1,-1,-1,-1,-1,-1,-1,-1,-1],"split_conditions":[2E0,5.420535E0,4E0,7.073257E-1,1E0,3.8286414E0,5.236442E0,-4.6348605E-1,-1.4019058E-2,6.040149E-1,6.253829E0,3.045527E-1,6.056784E0,-1.9129807E-1,3.0397747E-2,-2.1623567E-2,-4.8047133E-2,-2.5681578E-2,-3.32862E-3,-5.3571453E-3,1.1278426E-2,-8.010214E-3,4.70344E-3,1.0011725E-2,2.0182738E-2,7.885996E-3,1.8782446E-2],"split_indices":[0,2,0,131,0,2,2,77,0,351,2,315,2,405,0,0,0,0,0,0,0,0,0,0,0,0,0],"split_type":[0,0,0,0,0,0,0,0,0,0,0,0,0,0,0,0,0,0,0,0,0,0,0,0,0,0,0],"sum_hessian":[2.6E2,1.06E2,1.54E2,4.2E1,6.4E1,9.7E1,5.7E1,3.3E1,9E0,2.8E1,3.6E1,1.4E1,8.3E1,1.8E1,3.9E1,1E1,2.3E1,2E1,8E0,2.6E1,1E1,9E0,5E0,5.9E1,2.4E1,7E0,1.1E1],"tree_param":{"num_deleted":"0","num_feature":"455","num_nodes":"27","size_leaf_vector":"1"}},{"base_weights":[5.835397E-3,-3.6615548E-1,2.677933E-1,-6.044939E-1,-1.8803282E-1,1.7467406E-1,4.156176E-1,-4.318818E-1,-8.1340843E-1,-2.5916094E-1,7.108313E-2,-1.35650635E-2,2.186213E-1,3.0220273E-1,2.9758075E-2,-2.8573286E-2,-9.007869E-3,-5.575219E-2,-2.0964988E-2,-6.9388924E-3,-2.27422E-2,9.997816E-3,-3.9672945E-3,-8.807135E-3,5.4599517E-3,-7.54323E-5,1.4545555E-2,9.30413E-3,2.0009901E-2],"categories":[],"categories_nodes":[],"categories_segments":[],"categories_sizes":[],"default_left":[0,0,0,0,0,0,0,0,0,0,0,0,0,0,0,0,0,0,0,0,0,0,0,0,0,0,0,0,0],"id":2,"left_children":[1,3,5,7,9,11,13,15,17,19,21,23,25,27,-1,-1,-1,-1,-1,-1,-1,-1,-1,-1,-1,-1,-1,-1,-1],"loss_changes":[2.640907E1,4.52746E0,2.0434837E0,9.9228287E-1,1.2716825E0,8.414626E-1,2.4701023E-1,2.3179007E-1,3.7147045E-1,8.24126E-1,2.3178801E-1,3.1924698E-1,4.298079E-1,3.4708977E-2,0E0,0E0,0E0,0E0,0E0,0E0,0E0,0E0,0E0,0E0,0E0,0E0,0E0,0E0,0E0],"parents":[2147483647,0,0,1,1,2,2,3,3,4,4,5,5,6,6,7,7,8,8,9,9,10,10,11,11,12,12,13,13],"right_children":[2,4,6,8,10,12,14,16,18,20,22,24,26,28,-1,-1,-1,-1,-1,-1,-1,-1,-1,-1,-1,-1,-1,-1,-1],"split_conditions":[2E0,5.288267E0,4E0,4.2382717E-1,6.3578424E0,4.6634393E0,5.659482E0,1.066886E0,1.6682006E-1,-1.3641772E-1,5.6058204E-1,3E0,-1.1343455E0,-4.5721334E-1,2.9758075E-2,-2.8573286E-2,-9.007869E-3,-5.575219E-2,-2.0964988E-2,-6.9388924E-3,-2.27422E-2,9.997816E-3,-3.9672945E-3,-8.807135E-3,5.4599517E-3,-7.54323E-5,1.4545555E-2,9.30413E-3,2.0009901E-2],"split_indices":[0,2,0,170,2,2,2,261,154,397,368,0,165,345,0,0,0,0,0,0,0,0,0,0,0,0,0,0,0],"split_type":[0,0,0,0,0,0,0,0,0,0,0,0,0,0,0,0,0,0,0,0,0,0,0,0,0,0,0,0,0],"sum_hessian":[2.67E2,1.1E2,1.57E2,4.5E1,6.5E1,9.9E1,5.8E1,2.8E1,1.7E1,5.1E1,1.4E1,1.9E1,8E1,2.8E1,3E1,2.3E1,5E0,1.2E1,5E0,2.5E1,2.6E1,8E0,6E0,8E0,1.1E1,8E0,7.2E1,7E0,2.1E1],"tree_param":{"num_deleted":"0","num_feature":"455","num_nodes":"29","size_leaf_vector":"1"}},{"base_weights":[-1.11565115E-2,-3.498307E-1,2.538471E-1,-5.2981055E-1,-1.2600066E-1,1.592813E-1,3.9589933E-1,-6.268104E-3,-5.682223E-1,-2.5876665E-1,4.068501E-2,3.1106398E-2,2.3390563E-1,2.3987557E-1,2.7303532E-2,-3.720861E-2,-1.0763724E-2,-2.4922209E-2,-5.448698E-3,-5.5520865E-3,7.7961623E-3,-6.172528E-3,7.070126E-3,7.4739987E-3,1.7611701E-2,1.734824E-2,7.6716086E-3],"categories":[],"categories_nodes":[],"categories_segments":[],"categories_sizes":[],"default_left":[0,0,0,0,0,0,0,0,0,0,0,0,0,0,0,0,0,0,0,0,0,0,0,0,0,0,0],"id":3,"left_children":[1,3,5,7,9,11,13,-1,15,17,19,21,23,25,-1,-1,-1,-1,-1,-1,-1,-1,-1,-1,-1,-1,-1],"loss_changes":[2.4948572E1,4.781245E0,1.9694729E0,9.7593117E-1,1.2824764E0,9.1324973E-1,3.4473324E-1,0E0,1.0089893E0,7.662344E-1,3.4507728E-1,4.658093E-1,3.245368E-1,4.1941404E-2,0E0,0E0,0E0,0E0,0E0,0E0,0E0,0E0,0E0,0E0,0E0,0E0,0E0],"parents":[2147483647,0,0,1,1,2,2,3,3,4,4,5,5,6,6,8,8,9,9,10,10,11,11,12,12,13,13],"right_children":[2,4,6,8,10,12,14,-1,16,18,20,22,24,26,-1,-1,-1,-1,-1,-1,-1,-1,-1,-1,-1,-1,-1],"split_conditions":[2E0,5.68358E0,4E0,-1.3214824E0,1E0,5.4930615E0,5.236442E0,-6.268104E-3,1.3609273E0,1.7595425E-2,5.9506426E0,3E0,-1.533935E-1,2.484202E-2,2.7303532E-2,-3.720861E-2,-1.0763724E-2,-2.4922209E-2,-5.448698E-3,-5.5520865E-3,7.7961623E-3,-6.172528E-3,7.070126E-3,7.4739987E-3,1.7611701E-2,1.734824E-2,7.6716086E-3],"split_indices":[0,2,0,397,0,2,2,0,123,427,2,0,341,92,0,0,0,0,0,0,0,0,0,0,0,0,0],"split_type":[0,0,0,0,0,0,0,0,0,0,0,0,0,0,0,0,0,0,0,0,0,0,0,0,0,0,0],"sum_hessian":[2.74E2,1.2E2,1.54E2,6.5E1,5.5E1,9.5E1,5.9E1,6E0,5.9E1,3E1,2.5E1,3.6E1,5.9E1,1.9E1,4E1,5.1E1,8E0,1.4E1,1.6E1,1E1,1.5E1,1.4E1,2.2E1,2.3E1,3.6E1,1.1E1,8E0],"tree_param":{"num_deleted":"0","num_feature":"455","num_nodes":"27","size_leaf_vector":"1"}},{"base_weights":[1.2882832E-3,-3.0818513E-1,2.354124E-1,-5.4661137E-1,-1.5603277E-1,5.568369E-2,3.0760404E-1,-6.1175895E-1,-9.438785E-3,-3.1385612E-1,-2.3479706E-3,-1.0689853E-1,1.2620993E-1,2.4303323E-1,4.457701E-1,-4.3663163E-2,-2.2115758E-2,-2.6441282E-2,-6.0138158E-3,-4.206236E-3,9.707215E-3,-9.23563E-3,-5.503402E-4,2.912299E-3,1.2160123E-2,9.709986E-3,1.8724902E-2,1.2664633E-2,2.8415784E-2],"categories":[],"categories_nodes":[],"categories_segments":[],"categories_sizes":[],"default_left":[0,0,0,0,0,0,0,0,0,0,0,0,0,0,0,0,0,0,0,0,0,0,0,0,0,0,0,0,0],"id":4,"left_children":[1,3,5,7,9,11,13,15,-1,17,19,21,23,25,27,-1,-1,-1,-1,-1,-1,-1,-1,-1,-1,-1,-1,-1,-1],"loss_changes":[1.9345726E1,4.0012894E0,1.9379292E0,9.2344666E-1,1.769145E0,5.5443364E-1,7.4684715E-1,5.0683117E-1,0E0,8.8706374E-1,4.5640743E-1,6.61152E-2,1.7630196E-1,3.3631563E-1,9.049416E-3,0E0,0E0,0E0,0E0,0E0,0E0,0E0,0E0,0E0,0E0,0E0,0E0,0E0,0E0],"parents":[2147483647,0,0,1,1,2,2,3,3,4,4,5,5,6,6,7,7,9,9,10,10,11,11,12,12,13,13,14,14],"right_children":[2,4,6,8,10,12,14,16,-1,18,20,22,24,26,28,-1,-1,-1,-1,-1,-1,-1,-1,-1,-1,-1,-1,-1,-1],"split_conditions":[2E0,5.220356E0,3E0,7.073257E-1,1E0,5.4510384E0,6.0450053E0,2.831114E-1,-9.438785E-3,1.7595425E-2,6.253829E0,-1.9419144E-1,1.7073196E-1,4E0,-1.4513612E0,-4.3663163E-2,-2.2115758E-2,-2.6441282E-2,-6.0138158E-3,-4.206236E-3,9.707215E-3,-9.23563E-3,-5.503402E-4,2.912299E-3,1.2160123E-2,9.709986E-3,1.8724902E-2,1.2664633E-2,2.8415784E-2],"split_indices":[0,2,0,131,0,2,2,363,0,427,2,71,429,0,146,0,0,0,0,0,0,0,0,0,0,0,0,0,0],"split_type":[0,0,0,0,0,0,0,0,0,0,0,0,0,0,0,0,0,0,0,0,0,0,0,0,0,0,0,0,0],"sum_hessian":[2.63E2,1.13E2,1.5E2,4.2E1,7.1E1,4.4E1,1.06E2,3.5E1,7E0,3.4E1,3.7E1,1.3E1,3.1E1,7.6E1,3E1,2.1E1,1.4E1,2E1,1.4E1,2.7E1,1E1,8E0,5E0,1.7E1,1.4E1,3.8E1,3.8E1,5E0,2.5E1],"tree_param":{"num_deleted":"0","num_feature":"455","num_nodes":"29","size_leaf_vector":"1"}},{"base_weights":[3.8533988E-3,-3.0935687E-1,2.2246115E-1,-5.239893E-1,-1.6867244E-1,6.266941E-2,2.844374E-1,-3.5109457E-1,-7.251105E-1,-2.9487476E-1,-1.7700862E-2,-1.0021925E-1,1.3084562E-1,2.2317311E-1,2.5648722E-2,-2.4488816E-2,-4.2884587E-3,-6.0106743E-2,-2.7874775E-2,-2.6234753E-2,-7.3809694E-3,-6.54553E-3,7.706565E-3,-9.042735E-3,3.286089E-5,1.0557125E-2,1.1295032E-3,1.501998E-2,5.746322E-3],"categories":[],"categories_nodes":[],"categories_segments":[],"categories_sizes":[],"default_left":[0,0,0,0,0,0,0,0,0,0,0,0,0,0,0,0,0,0,0,0,0,0,0,0,0,0,0,0,0],"id":5,"left_children":[1,3,5,7,9,11,13,15,17,19,21,23,25,27,-1,-1,-1,-1,-1,-1,-1,-1,-1,-1,-1,-1,-1,-1,-1],"loss_changes":[1.8487652E1,3.1749296E0,1.5389714E0,9.8606586E-1,1.3232685E0,5.4816765E-1,8.0821514E-1,3.7238693E-1,3.6664104E-1,8.22196E-1,4.821369E-1,7.648547E-2,1.651724E-1,2.4270678E-1,0E0,0E0,0E0,0E0,0E0,0E0,0E0,0E0,0E0,0E0,0E0,0E0,0E0,0E0,0E0],"parents":[2147483647,0,0,1,1,2,2,3,3,4,4,5,5,6,6,7,7,8,8,9,9,10,10,11,11,12,12,13,13],"right_children":[2,4,6,8,10,12,14,16,18,20,22,24,26,28,-1,-1,-1,-1,-1,-1,-1,-1,-1,-1,-1,-1,-1,-1,-1],"split_conditions":[2E0,5.288267E0,3E0,4.2382717E-1,1E0,5.3936276E0,6.0450053E0,8.917065E-1,-6.6648346E-1,6.0185933E0,5.9506426E0,4.1097853E-1,3.9599296E-1,9.166299E-1,2.5648722E-2,-2.4488816E-2,-4.2884587E-3,-6.0106743E-2,-2.7874775E-2,-2.6234753E-2,-7.3809694E-3,-6.54553E-3,7.706565E-3,-9.042735E-3,3.286089E-5,1.0557125E-2,1.1295032E-3,1.501998E-2,5.746322E-3],"split_indices":[0,2,0,170,0,2,2,261,450,2,2,81,286,74,0,0,0,0,0,0,0,0,0,0,0,0,0,0,0],"split_type":[0,0,0,0,0,0,0,0,0,0,0,0,0,0,0,0,0,0,0,0,0,0,0,0,0,0,0,0,0],"sum_hessian":[2.66E2,1.09E2,1.57E2,4.1E1,6.8E1,4.5E1,1.12E2,2.5E1,1.6E1,3.6E1,3.2E1,1.3E1,3.2E1,8.2E1,3E1,2E1,5E0,5E0,1.1E1,1.8E1,1.8E1,2E1,1.2E1,8E0,5E0,2.2E1,1E1,6.6E1,1.6E1],"tree_param":{"num_deleted":"0","num_feature":"455","num_nodes":"29","size_leaf_vector":"1"}},{"base_weights":[-2.172819E-2,-4.0518925E-1,8.8046186E-2,-5.255719E-1,-1.23905025E-1,-6.771065E-2,1.8430568E-1,-1.4394429E-2,-6.047997E-1,-2.0352529E-1,1.1181879E-3,-2.2009426E-1,8.425925E-2,2.4801113E-1,7.0450544E-2,-1.9674096E-2,-4.153449E-2,-5.7448624E-3,-1.481696E-2,4.0159877E-3,-1.8464584E-2,-5.0558806E-3,9.100139E-3,7.564297E-3,1.7931225E-2,-3.9365212E-3,1.03393225E-2],"categories":[],"categories_nodes":[],"categories_segments":[],"categories_sizes":[],"default_left":[0,0,0,0,0,0,0,0,0,0,0,0,0,0,0,0,0,0,0,0,0,0,0,0,0,0,0],"id":6,"left_children":[1,3,5,7,9,11,13,-1,15,17,-1,19,21,23,25,-1,-1,-1,-1,-1,-1,-1,-1,-1,-1,-1,-1],"loss_changes":[1.0973748E1,1.8337383E0,3.0685532E0,6.151123E-1,2.3456979E-1,1.8665502E0,8.7895775E-1,0E0,2.7240086E-1,1.3552129E-2,0E0,1.0475008E0,4.9132714E-1,4.2062378E-1,6.879184E-1,0E0,0E0,0E0,0E0,0E0,0E0,0E0,0E0,0E0,0E0,0E0,0E0],"parents":[2147483647,0,0,1,1,2,2,3,3,4,4,5,5,6,6,8,8,9,9,11,11,12,12,13,13,14,14],"right_children":[2,4,6,8,10,12,14,-1,16,18,-1,20,22,24,26,-1,-1,-1,-1,-1,-1,-1,-1,-1,-1,-1,-1],"split_conditions":[1E0,6.0185933E0,5.4510384E0,-6.0300833E-1,7.6654345E-1,-3.8020216E-2,3.2278597E-1,-1.4394429E-2,-7.0515794E-1,-3.3107433E-1,1.1181879E-3,-1.0081832E0,-8.246805E-1,-4.932643E-1,-1.0009062E-1,-1.9674096E-2,-4.153449E-2,-5.7448624E-3,-1.481696E-2,4.0159877E-3,-1.8464584E-2,-5.0558806E-3,9.100139E-3,7.564297E-3,1.7931225E-2,-3.9365212E-3,1.03393225E-2],"split_indices":[34,2,2,443,237,436,392,0,238,138,0,98,220,377,334,0,0,0,0,0,0,0,0,0,0,0,0],"split_type":[0,0,0,0,0,0,0,0,0,0,0,0,0,0,0,0,0,0,0,0,0,0,0,0,0,0,0],"sum_hessian":[2.57E2,5.6E1,2.01E2,3.8E1,1.8E1,7.7E1,1.24E2,1E1,2.8E1,1.1E1,7E0,3.8E1,3.9E1,7.8E1,4.6E1,9E0,1.9E1,5E0,6E0,9E0,2.9E1,1.1E1,2.8E1,2.5E1,5.3E1,2E1,2.6E1],"tree_param":{"num_deleted":"0","num_feature":"455","num_nodes":"27","size_leaf_vector":"1"}},{"base_weights":[-4.9911602E-3,9.5740855E-2,-3.894228E-1,5.7494976E-3,1.7438062E-1,-7.537794E-2,-4.5586044E-1,1.3239205E-1,-9.4433196E-2,-4.3525066E-2,2.013998E-1,1.0585315E-3,-8.811691E-3,-5.10913E-1,-4.4108406E-3,-7.267173E-3,1.1127976E-2,-1.1736768E-2,1.1357469E-2,-8.746064E-3,6.021932E-3,5.3616166E-3,1.4678714E-2,-4.6098378E-2,-2.3695245E-2],"categories":[],"categories_nodes":[],"categories_segments":[],"categories_sizes":[],"default_left":[0,0,0,0,0,0,0,0,0,0,0,0,0,0,0,0,0,0,0,0,0,0,0,0,0],"id":7,"left_children":[1,3,5,7,9,11,13,15,17,19,21,-1,-1,23,-1,-1,-1,-1,-1,-1,-1,-1,-1,-1,-1],"loss_changes":[1.02591305E1,1.4841437E0,1.0788174E0,1.2937436E0,6.769469E-1,8.4974855E-2,8.7209415E-1,6.503991E-1,1.7103612E0,2.3522475E-1,4.4079638E-1,0E0,0E0,5.575285E-1,0E0,0E0,0E0,0E0,0E0,0E0,0E0,0E0,0E0,0E0,0E0],"parents":[2147483647,0,0,1,1,2,2,3,3,4,4,5,5,6,6,7,7,8,8,9,9,10,10,13,13],"right_children":[2,4,6,8,10,12,14,16,18,20,22,-1,-1,24,-1,-1,-1,-1,-1,-1,-1,-1,-1,-1,-1],"split_conditions":[1E0,4.7749802E-3,-8.907937E-1,3.36523E-2,-1.2659978E0,-1.0053845E-1,9.2195594E-1,-1.1279234E0,7.783946E-1,7.344639E-1,-3.859821E-1,1.0585315E-3,-8.811691E-3,-6.4633006E-1,-4.4108406E-3,-7.267173E-3,1.1127976E-2,-1.1736768E-2,1.1357469E-2,-8.746064E-3,6.021932E-3,5.3616166E-3,1.4678714E-2,-4.6098378E-2,-2.3695245E-2],"split_indices":[36,436,125,110,287,173,357,184,194,73,111,0,0,411,0,0,0,0,0,0,0,0,0,0,0],"split_type":[0,0,0,0,0,0,0,0,0,0,0,0,0,0,0,0,0,0,0,0,0,0,0,0,0],"sum_hessian":[2.61E2,2.08E2,5.3E1,9.8E1,1.1E2,1E1,4.3E1,4.3E1,5.5E1,1.2E1,9.8E1,5E0,5E0,3.7E1,6E0,7E0,3.6E1,4.1E1,1.4E1,7E0,5E0,2.9E1,6.9E1,8E0,2.9E1],"tree_param":{"num_deleted":"0","num_feature":"455","num_nodes":"25","size_leaf_vector":"1"}},{"base_weights":[-1.728891E-2,-2.6824138E-1,1.9556372E-1,-2.0284386E-1,-4.9410576E-1,1.2210164E-1,3.0664337E-1,-9.781779E-2,-3.0817026E-1,-6.0254085E-1,-1.6576439E-3,7.307079E-2,2.1070419E-1,6.011569E-3,3.274097E-1,-6.308846E-4,-1.2954691E-2,1.804257E-3,-2.0933958E-2,-4.9047016E-2,-1.8307025E-2,-7.003579E-3,6.1198385E-3,4.434581E-3,1.5111478E-2,6.5808655E-3,2.0803625E-2],"categories":[],"categories_nodes":[],"categories_segments":[],"categories_sizes":[],"default_left":[0,0,0,0,0,0,0,0,0,0,0,0,0,0,0,0,0,0,0,0,0,0,0,0,0,0,0],"id":8,"left_children":[1,3,5,7,9,11,13,15,17,19,-1,21,23,-1,25,-1,-1,-1,-1,-1,-1,-1,-1,-1,-1,-1,-1],"loss_changes":[1.4206713E1,1.6016054E0,1.1001773E0,1.0237889E0,1.2818551E0,3.6019075E-1,1.7447662E-1,5.315765E-1,6.822429E-1,8.434663E-1,0E0,3.5871196E-1,1.3728833E-1,0E0,1.3423777E-1,0E0,0E0,0E0,0E0,0E0,0E0,0E0,0E0,0E0,0E0,0E0,0E0],"parents":[2147483647,0,0,1,1,2,2,3,3,4,4,5,5,6,6,7,7,8,8,9,9,11,11,12,12,14,14],"right_children":[2,4,6,8,10,12,14,16,18,20,-1,22,24,-1,26,-1,-1,-1,-1,-1,-1,-1,-1,-1,-1,-1,-1],"split_conditions":[2E0,6.0913646E-1,4E0,-3.2019466E-2,6.0192794E-1,3.5454723E-1,-1.5109183E0,3.6217472E-1,-7.8214633E-1,-1.4374846E-1,-1.6576439E-3,-1.0586499E0,-6.3065434E-1,6.011569E-3,-1.3639501E0,-6.308846E-4,-1.2954691E-2,1.804257E-3,-2.0933958E-2,-4.9047016E-2,-1.8307025E-2,-7.003579E-3,6.1198385E-3,4.434581E-3,1.5111478E-2,6.5808655E-3,2.0803625E-2],"split_indices":[0,155,0,341,121,87,445,260,142,122,0,274,121,0,191,0,0,0,0,0,0,0,0,0,0,0,0],"split_type":[0,0,0,0,0,0,0,0,0,0,0,0,0,0,0,0,0,0,0,0,0,0,0,0,0,0,0],"sum_hessian":[2.62E2,1.2E2,1.42E2,9.6E1,2.4E1,8.8E1,5.4E1,5E1,4.6E1,1.9E1,5E0,5.9E1,2.9E1,6E0,4.8E1,3E1,2E1,5E0,4.1E1,9E0,1E1,7E0,5.2E1,8E0,2.1E1,5E0,4.3E1],"tree_param":{"num_deleted":"0","num_feature":"455","num_nodes":"27","size_leaf_vector":"1"}},{"base_weights":[-4.3151714E-3,-2.565826E-1,1.8073846E-1,-4.3669847E-1,-1.1845009E-1,3.047064E-2,2.294019E-1,-3.0394217E-1,-6.003454E-1,-2.2582181E-1,-6.4589037E-4,9.6778505E-2,-8.852574E-2,1.5050295E-1,3.2279444E-1,-2.2876138E-2,-9.666101E-3,-4.536163E-2,-1.5561569E-2,-1.9995246E-2,-3.7982243E-3,4.0421644E-3,-1.3802162E-2,9.352064E-3,1.11786125E-4,-1.3412375E-3,-9.465828E-3,4.2114374E-3,1.1831318E-2,6.934138E-3,2.074796E-2],"categories":[],"categories_nodes":[],"categories_segments":[],"categories_sizes":[],"default_left":[0,0,0,0,0,0,0,0,0,0,0,0,0,0,0,0,0,0,0,0,0,0,0,0,0,0,0,0,0,0,0],"id":9,"left_children":[1,3,5,7,9,11,13,15,17,19,21,23,25,27,29,-1,-1,-1,-1,-1,-1,-1,-1,-1,-1,-1,-1,-1,-1,-1,-1],"loss_changes":[1.2136962E1,2.6333303E0,1.0829024E0,6.5614223E-1,8.218828E-1,3.248602E-1,7.3548555E-1,2.0851564E-1,6.1645555E-1,5.514369E-1,5.458621E-1,1.4523967E-1,6.1670803E-2,2.1603179E-1,1.5843248E-1,0E0,0E0,0E0,0E0,0E0,0E0,0E0,0E0,0E0,0E0,0E0,0E0,0E0,0E0,0E0,0E0],"parents":[2147483647,0,0,1,1,2,2,3,3,4,4,5,5,6,6,7,7,8,8,9,9,10,10,11,11,12,12,13,13,14,14],"right_children":[2,4,6,8,10,12,14,16,18,20,22,24,26,28,30,-1,-1,-1,-1,-1,-1,-1,-1,-1,-1,-1,-1,-1,-1,-1,-1],"split_conditions":[2E0,5.4553213E0,3E0,5.8337983E-2,1E0,5.293393E-1,5.676754E0,2.3620223E-1,6.356649E-2,1.7595425E-2,6.2016755E-1,1.6314553E-1,6.3427967E-1,-2.6742747E-2,-1.3174607E0,-2.2876138E-2,-9.666101E-3,-4.536163E-2,-1.5561569E-2,-1.9995246E-2,-3.7982243E-3,4.0421644E-3,-1.3802162E-2,9.352064E-3,1.11786125E-4,-1.3412375E-3,-9.465828E-3,4.2114374E-3,1.1831318E-2,6.934138E-3,2.074796E-2],"split_indices":[0,2,0,204,0,235,2,120,326,427,428,145,106,82,247,0,0,0,0,0,0,0,0,0,0,0,0,0,0,0,0],"split_type":[0,0,0,0,0,0,0,0,0,0,0,0,0,0,0,0,0,0,0,0,0,0,0,0,0,0,0,0,0,0,0],"sum_hessian":[2.56E2,1.08E2,1.48E2,4.5E1,6.3E1,3.7E1,1.11E2,2.8E1,1.7E1,3.2E1,3.1E1,2.4E1,1.3E1,6.3E1,4.8E1,1.6E1,1.2E1,1E1,7E0,1.8E1,1.4E1,2.5E1,6E0,1.4E1,1E1,8E0,5E0,2.5E1,3.8E1,6E0,4.2E1],"tree_param":{"num_deleted":"0","num_feature":"455","num_nodes":"31","size_leaf_vector":"1"}},{"base_weights":[-5.1237373E-3,-2.1965489E-1,1.7544901E-1,-3.7033716E-1,-6.1886977E-2,4.5762725E-2,2.310398E-1,-2.625875E-1,-5.190585E-1,-1.2064667E-1,9.515301E-2,-1.0439455E-1,9.892041E-2,1.6293253E-1,3.0855408E-1,-2.37634E-2,-7.042816E-3,-1.1211444E-2,-3.6541816E-2,-1.2357292E-2,-1.045761E-3,8.808734E-3,-1.6783271E-3,-1.5266828E-3,-8.842621E-3,-3.9730073E-4,8.500018E-3,1.0915507E-2,-1.6452353E-3,2.0152804E-2,7.476609E-3],"categories":[],"categories_nodes":[],"categories_segments":[],"categories_sizes":[],"default_left":[0,0,0,0,0,0,0,0,0,0,0,0,0,0,0,0,0,0,0,0,0,0,0,0,0,0,0,0,0,0,0],"id":10,"left_children":[1,3,5,7,9,11,13,15,17,19,21,23,25,27,29,-1,-1,-1,-1,-1,-1,-1,-1,-1,-1,-1,-1,-1,-1,-1,-1],"loss_changes":[1.0342774E1,2.854447E0,1.0242114E0,7.2093296E-1,5.950723E-1,3.8782609E-1,4.3266106E-1,6.8224907E-1,4.8972607E-1,3.978637E-1,1.22703165E-1,3.6615044E-2,1.5978083E-1,2.1966422E-1,1.424818E-1,0E0,0E0,0E0,0E0,0E0,0E0,0E0,0E0,0E0,0E0,0E0,0E0,0E0,0E0,0E0,0E0],"parents":[2147483647,0,0,1,1,2,2,3,3,4,4,5,5,6,6,7,7,8,8,9,9,10,10,11,11,12,12,13,13,14,14],"right_children":[2,4,6,8,10,12,14,16,18,20,22,24,26,28,30,-1,-1,-1,-1,-1,-1,-1,-1,-1,-1,-1,-1,-1,-1,-1,-1],"split_conditions":[2E0,5.68358E0,3E0,3.8839188E-1,6.3578424E0,5.4510384E0,5.676754E0,1E0,-5.3747994E-1,1.7340046E-1,9.819658E-1,-2.6709634E-1,-8.1666166E-1,1.4093484E0,1.400333E0,-2.37634E-2,-7.042816E-3,-1.1211444E-2,-3.6541816E-2,-1.2357292E-2,-1.045761E-3,8.808734E-3,-1.6783271E-3,-1.5266828E-3,-8.842621E-3,-3.9730073E-4,8.500018E-3,1.0915507E-2,-1.6452353E-3,2.0152804E-2,7.476609E-3],"split_indices":[0,2,0,373,2,2,2,0,197,170,294,237,278,179,91,0,0,0,0,0,0,0,0,0,0,0,0,0,0,0,0],"split_type":[0,0,0,0,0,0,0,0,0,0,0,0,0,0,0,0,0,0,0,0,0,0,0,0,0,0,0,0,0,0,0],"sum_hessian":[2.63E2,1.2E2,1.43E2,6E1,6E1,4.4E1,9.9E1,3.8E1,2.2E1,4.4E1,1.6E1,1.1E1,3.3E1,5.6E1,4.3E1,1.8E1,2E1,6E0,1.6E1,2.3E1,2.1E1,1.1E1,5E0,5E0,6E0,1E1,2.3E1,5.1E1,5E0,3.6E1,7E0],"tree_param":{"num_deleted":"0","num_feature":"455","num_nodes":"31","size_leaf_vector":"1"}},{"base_weights":[2.8235088E-3,-2.8677148E-1,7.965608E-2,-2.0820866E-3,-3.2733727E-1,-1.5809458E-2,9.2270054E-2,-4.0307432E-1,-1.4180803E-1,1.4701048E-1,2.0463146E-2,-1.7052196E-2,-3.1427927E-2,-1.4722642E-2,-1.2140422E-3,1.0484346E-2,7.588915E-4,-1.0335164E-2,3.9701564E-3],"categories":[],"categories_nodes":[],"categories_segments":[],"categories_sizes":[],"default_left":[0,0,0,0,0,0,0,0,0,0,0,0,0,0,0,0,0,0,0],"id":11,"left_children":[1,3,5,-1,7,-1,9,11,13,15,17,-1,-1,-1,-1,-1,-1,-1,-1],"loss_changes":[5.942023E0,5.499058E-1,9.6192694E-1,0E0,5.6015015E-1,0E0,7.9978526E-1,1.7584133E-1,2.0412275E-1,4.2775917E-1,8.2435083E-1,0E0,0E0,0E0,0E0,0E0,0E0,0E0,0E0],"parents":[2147483647,0,0,1,1,2,2,4,4,6,6,7,7,8,8,9,9,10,10],"right_children":[2,4,6,-1,8,-1,10,12,14,16,18,-1,-1,-1,-1,-1,-1,-1,-1],"split_conditions":[1E0,-1.2087717E0,-1.6833951E0,-2.0820866E-3,2.948072E-1,-1.5809458E-2,1.2412574E-1,1.2985098E-1,6.188711E-1,6.9581556E-1,-1.1248493E0,-1.7052196E-2,-3.1427927E-2,-1.4722642E-2,-1.2140422E-3,1.0484346E-2,7.588915E-4,-1.0335164E-2,3.9701564E-3],"split_indices":[34,125,366,0,357,0,110,384,123,296,408,0,0,0,0,0,0,0,0],"split_type":[0,0,0,0,0,0,0,0,0,0,0,0,0,0,0,0,0,0,0],"sum_hessian":[2.63E2,5.4E1,2.09E2,8E0,4.6E1,6E0,2.03E2,3.1E1,1.5E1,1.14E2,8.9E1,1.9E1,1.2E1,7E0,8E0,9.4E1,2E1,1.6E1,7.3E1],"tree_param":{"num_deleted":"0","num_feature":"455","num_nodes":"19","size_leaf_vector":"1"}},{"base_weights":[-4.2090486E-3,-2.0686004E-1,1.4383489E-1,-3.3512104E-1,-7.359098E-2,8.110314E-2,2.4554206E-1,-3.9430028E-1,-1.2079107E-1,-1.4089896E-1,7.585645E-2,-5.6039747E-2,1.11646995E-1,1.2096509E-1,2.9243904E-1,-3.0493107E-2,-1.1814417E-2,-1.055777E-2,-2.6944224E-3,-3.404683E-3,-1.8417051E-2,-1.9917118E-3,7.877696E-3,2.238214E-3,-6.291617E-3,7.877112E-3,-2.1244902E-3,2.6836954E-3,1.0096659E-2,8.286281E-3,1.8395705E-2],"categories":[],"categories_nodes":[],"categories_segments":[],"categories_sizes":[],"default_left":[0,0,0,0,0,0,0,0,0,0,0,0,0,0,0,0,0,0,0,0,0,0,0,0,0,0,0,0,0,0,0],"id":12,"left_children":[1,3,5,7,9,11,13,15,17,19,21,23,25,27,29,-1,-1,-1,-1,-1,-1,-1,-1,-1,-1,-1,-1,-1,-1,-1,-1],"loss_changes":[7.8898335E0,1.8480244E0,9.2997265E-1,6.1504173E-1,5.9473944E-1,4.1883403E-1,2.622602E-1,7.667842E-1,4.6995893E-2,5.241232E-1,1.2358422E-1,9.440768E-2,2.4032915E-1,5.3478688E-2,2.7062893E-3,0E0,0E0,0E0,0E0,0E0,0E0,0E0,0E0,0E0,0E0,0E0,0E0,0E0,0E0,0E0,0E0],"parents":[2147483647,0,0,1,1,2,2,3,3,4,4,5,5,6,6,7,7,8,8,9,9,10,10,11,11,12,12,13,13,14,14],"right_children":[2,4,6,8,10,12,14,16,18,20,22,24,26,28,30,-1,-1,-1,-1,-1,-1,-1,-1,-1,-1,-1,-1,-1,-1,-1,-1],"split_conditions":[2E0,5.68358E0,4E0,5.2242935E-1,6.3332796E0,4.6634393E0,5.236442E0,2.821078E-1,-4.5177323E-1,2.887654E-1,-4.475904E-1,-2.9892135E-1,1.2023377E0,-2.5187102E-1,-1.1552582E0,-3.0493107E-2,-1.1814417E-2,-1.055777E-2,-2.6944224E-3,-3.404683E-3,-1.8417051E-2,-1.9917118E-3,7.877696E-3,2.238214E-3,-6.291617E-3,7.877112E-3,-2.1244902E-3,2.6836954E-3,1.0096659E-2,8.286281E-3,1.8395705E-2],"split_indices":[0,2,0,282,2,2,2,76,78,76,385,99,158,212,301,0,0,0,0,0,0,0,0,0,0,0,0,0,0,0,0],"split_type":[0,0,0,0,0,0,0,0,0,0,0,0,0,0,0,0,0,0,0,0,0,0,0,0,0,0,0,0,0,0,0],"sum_hessian":[2.59E2,1.09E2,1.5E2,5.4E1,5.5E1,9.5E1,5.5E1,4.1E1,1.3E1,3.8E1,1.7E1,1.7E1,7.8E1,1.7E1,3.8E1,2.4E1,1.7E1,6E0,7E0,2.7E1,1.1E1,6E0,1.1E1,6E0,1.1E1,6.9E1,9E0,8E0,9E0,5E0,3.3E1],"tree_param":{"num_deleted":"0","num_feature":"455","num_nodes":"31","size_leaf_vector":"1"}},{"base_weights":[-5.1958575E-3,-2.0936647E-1,1.4733669E-1,-3.9711627E-1,-9.864348E-2,7.795979E-2,2.4776822E-1,-5.234971E-1,-2.2087857E-1,-1.877562E-1,3.0266594E-3,4.5774825E-2,1.37483785E-2,9.563397E-2,2.7683115E-1,-1.65507E-2,-4.029366E-2,-1.6684791E-2,-4.9688797E-3,-1.6549274E-2,-4.3265414E-3,-1.0932311E-2,3.0379896E-3,5.7994097E-4,8.065332E-3,8.109719E-3,2.2283078E-3,5.2905953E-3,1.7610198E-2],"categories":[],"categories_nodes":[],"categories_segments":[],"categories_sizes":[],"default_left":[0,0,0,0,0,0,0,0,0,0,0,0,0,0,0,0,0,0,0,0,0,0,0,0,0,0,0,0,0],"id":13,"left_children":[1,3,5,7,9,11,13,15,17,19,21,23,-1,25,27,-1,-1,-1,-1,-1,-1,-1,-1,-1,-1,-1,-1,-1,-1],"loss_changes":[8.376786E0,2.3122997E0,1.0343826E0,7.042093E-1,6.806441E-1,4.3639994E-1,2.2118235E-1,4.7287893E-1,1.1978793E-1,3.6760056E-1,3.4472618E-1,2.5347984E-1,0E0,2.0019315E-2,1.08649015E-1,0E0,0E0,0E0,0E0,0E0,0E0,0E0,0E0,0E0,0E0,0E0,0E0,0E0,0E0],"parents":[2147483647,0,0,1,1,2,2,3,3,4,4,5,5,6,6,7,7,8,8,9,9,10,10,11,11,13,13,14,14],"right_children":[2,4,6,8,10,12,14,16,18,20,22,24,-1,26,28,-1,-1,-1,-1,-1,-1,-1,-1,-1,-1,-1,-1,-1,-1],"split_conditions":[2E0,5.288267E0,4E0,-6.142215E-2,1E0,6.35437E0,4.26268E0,1.271265E-1,8.341974E-1,6.0185933E0,-9.940717E-1,6.1879987E-1,1.37483785E-2,-7.8214854E-1,-1.5594758E0,-1.65507E-2,-4.029366E-2,-1.6684791E-2,-4.9688797E-3,-1.6549274E-2,-4.3265414E-3,-1.0932311E-2,3.0379896E-3,5.7994097E-4,8.065332E-3,8.109719E-3,2.2283078E-3,5.2905953E-3,1.7610198E-2],"split_indices":[0,2,0,76,0,2,2,177,375,2,128,429,0,86,445,0,0,0,0,0,0,0,0,0,0,0,0,0,0],"split_type":[0,0,0,0,0,0,0,0,0,0,0,0,0,0,0,0,0,0,0,0,0,0,0,0,0,0,0,0,0],"sum_hessian":[2.65E2,1.13E2,1.52E2,4E1,7.3E1,9.2E1,6E1,2.1E1,1.9E1,3.8E1,3.5E1,7.8E1,1.4E1,1.1E1,4.9E1,1E1,1.1E1,1.2E1,7E0,2E1,1.8E1,6E0,2.9E1,5.7E1,2.1E1,5E0,6E0,5E0,4.4E1],"tree_param":{"num_deleted":"0","num_feature":"455","num_nodes":"29","size_leaf_vector":"1"}},{"base_weights":[6.697572E-3,-1.8229236E-1,1.4177649E-1,-3.3896458E-1,-8.006473E-2,3.8646217E-2,1.8344344E-1,-1.6107579E-1,-4.3903708E-1,-1.1144688E-1,6.682424E-3,-5.2112266E-2,7.908279E-2,1.417189E-1,1.6999349E-2,-1.3140135E-2,-2.8827507E-3,-1.4023992E-2,-3.4326945E-2,-1.945252E-3,-1.1010448E-2,-5.0764987E-3,8.305304E-4,-1.044219E-3,6.6065793E-3,2.398332E-3,9.672272E-3],"categories":[],"categories_nodes":[],"categories_segments":[],"categories_sizes":[],"default_left":[0,0,0,0,0,0,0,0,0,0,0,0,0,0,0,0,0,0,0,0,0,0,0,0,0,0,0],"id":14,"left_children":[1,3,5,7,9,11,13,15,17,19,-1,21,23,25,-1,-1,-1,-1,-1,-1,-1,-1,-1,-1,-1,-1,-1],"loss_changes":[6.9188704E0,1.7555563E0,6.6476655E-1,6.418414E-1,4.513748E-1,1.8440051E-1,3.8644528E-1,1.0335681E-1,4.7023726E-1,3.4117E-1,0E0,3.6634468E-2,1.0561749E-1,1.5166831E-1,0E0,0E0,0E0,0E0,0E0,0E0,0E0,0E0,0E0,0E0,0E0,0E0,0E0],"parents":[2147483647,0,0,1,1,2,2,3,3,4,4,5,5,6,6,7,7,8,8,9,9,11,11,12,12,13,13],"right_children":[2,4,6,8,10,12,14,16,18,20,-1,22,24,26,-1,-1,-1,-1,-1,-1,-1,-1,-1,-1,-1,-1,-1],"split_conditions":[2E0,5.420535E0,3E0,-3.9326552E-1,6.4769726E0,5.605802E0,6.0450053E0,1.3113186E-1,9.738788E-2,-3.5573516E-2,6.682424E-3,7.563518E-1,-6.355291E-1,-1.2143753E0,1.6999349E-2,-1.3140135E-2,-2.8827507E-3,-1.4023992E-2,-3.4326945E-2,-1.945252E-3,-1.1010448E-2,-5.0764987E-3,8.305304E-4,-1.044219E-3,6.6065793E-3,2.398332E-3,9.672272E-3],"split_indices":[0,2,0,160,2,2,2,80,177,341,0,437,353,440,0,0,0,0,0,0,0,0,0,0,0,0,0],"split_type":[0,0,0,0,0,0,0,0,0,0,0,0,0,0,0,0,0,0,0,0,0,0,0,0,0,0,0],"sum_hessian":[2.67E2,1.11E2,1.56E2,4.2E1,6.9E1,4.6E1,1.1E2,1.7E1,2.5E1,6E1,9E0,1.4E1,3.2E1,8.1E1,2.9E1,1E1,7E0,1.2E1,1.3E1,3E1,3E1,9E0,5E0,8E0,2.4E1,1.4E1,6.7E1],"tree_param":{"num_deleted":"0","num_feature":"455","num_nodes":"27","size_leaf_vector":"1"}},{"base_weights":[-1.013807E-2,-1.9535783E-1,1.2621889E-1,-3.1179798E-1,-1.1605471E-1,1.849059E-2,1.6593224E-1,-4.390789E-1,-1.9441967E-1,-1.88221E-1,-3.5436314E-2,-5.3251404E-2,9.5073625E-2,1.0614568E-1,2.3198393E-1,-3.9534394E-2,-1.3160393E-2,-2.2513368E-3,-1.36000225E-2,-1.6238349E-2,-2.7730358E-3,-6.978881E-3,2.950332E-3,-7.4699163E-3,3.6580372E-4,1.8061995E-5,7.834543E-3,8.948492E-3,2.266221E-3,1.4838652E-2,3.7676054E-3],"categories":[],"categories_nodes":[],"categories_segments":[],"categories_sizes":[],"default_left":[0,0,0,0,0,0,0,0,0,0,0,0,0,0,0,0,0,0,0,0,0,0,0,0,0,0,0,0,0,0,0],"id":15,"left_children":[1,3,5,7,9,11,13,15,17,19,21,23,25,27,29,-1,-1,-1,-1,-1,-1,-1,-1,-1,-1,-1,-1,-1,-1,-1,-1],"loss_changes":[6.792669E0,9.803128E-1,6.5699244E-1,5.0156975E-1,3.997333E-1,2.518713E-1,3.9698935E-1,6.770451E-1,1.19597316E-1,4.080199E-1,2.5778684E-1,1.029994E-1,7.394314E-2,1.7394465E-1,1.0378599E-1,0E0,0E0,0E0,0E0,0E0,0E0,0E0,0E0,0E0,0E0,0E0,0E0,0E0,0E0,0E0,0E0],"parents":[2147483647,0,0,1,1,2,2,3,3,4,4,5,5,6,6,7,7,8,8,9,9,10,10,11,11,12,12,13,13,14,14],"right_children":[2,4,6,8,10,12,14,16,18,20,22,24,26,28,30,-1,-1,-1,-1,-1,-1,-1,-1,-1,-1,-1,-1,-1,-1,-1,-1],"split_conditions":[2E0,5.288267E0,3E0,-2.5327787E-1,1E0,5.9532433E0,5.676754E0,-8.2889867E-1,-6.158688E-1,2.154263E-1,-1.06930695E-1,-4.6926594E-1,-6.828517E-1,9.441846E-2,1.4056157E0,-3.9534394E-2,-1.3160393E-2,-2.2513368E-3,-1.36000225E-2,-1.6238349E-2,-2.7730358E-3,-6.978881E-3,2.950332E-3,-7.4699163E-3,3.6580372E-4,1.8061995E-5,7.834543E-3,8.948492E-3,2.266221E-3,1.4838652E-2,3.7676054E-3],"split_indices":[0,2,0,76,0,2,2,218,311,357,450,91,233,342,84,0,0,0,0,0,0,0,0,0,0,0,0,0,0,0,0],"split_type":[0,0,0,0,0,0,0,0,0,0,0,0,0,0,0,0,0,0,0,0,0,0,0,0,0,0,0,0,0,0,0],"sum_hessian":[2.65E2,1.12E2,1.53E2,4.3E1,6.9E1,4.2E1,1.11E2,1.8E1,2.5E1,3.5E1,3.4E1,2.2E1,2E1,6.1E1,5E1,7E0,1.1E1,5E0,2E1,2.1E1,1.4E1,1.7E1,1.7E1,9E0,1.3E1,6E0,1.4E1,3.6E1,2.5E1,4.5E1,5E0],"tree_param":{"num_deleted":"0","num_feature":"455","num_nodes":"31","size_leaf_vector":"1"}},{"base_weights":[2.3635651E-3,-1.7151363E-1,1.2888983E-1,-3.1497818E-1,-7.7084005E-2,7.7939756E-2,2.073534E-1,-3.7331203E-1,-4.0079253E-3,-1.18755125E-1,8.36093E-2,4.8697904E-2,1.9593725E-1,1.23295404E-1,2.6275104E-1,-2.8714607E-2,-1.1961601E-2,-8.686523E-3,3.304982E-3,7.958739E-3,-1.040172E-3,6.45998E-3,1.2221742E-5,4.7524166E-3,1.3578681E-2,9.876669E-3,3.5078255E-3,6.512158E-3,1.687307E-2],"categories":[],"categories_nodes":[],"categories_segments":[],"categories_sizes":[],"default_left":[0,0,0,0,0,0,0,0,0,0,0,0,0,0,0,0,0,0,0,0,0,0,0,0,0,0,0,0,0],"id":16,"left_children":[1,3,5,7,9,11,13,15,-1,17,19,21,23,25,27,-1,-1,-1,-1,-1,-1,-1,-1,-1,-1,-1,-1,-1,-1],"loss_changes":[6.0062213E0,1.5093806E0,5.9931827E-1,6.0160303E-1,5.019895E-1,3.2251263E-1,2.1926165E-1,4.6837807E-1,0E0,2.7830154E-1,8.379914E-2,2.3444557E-1,3.151512E-2,5.5752337E-2,3.8630486E-2,0E0,0E0,0E0,0E0,0E0,0E0,0E0,0E0,0E0,0E0,0E0,0E0,0E0,0E0],"parents":[2147483647,0,0,1,1,2,2,3,3,4,4,5,5,6,6,7,7,9,9,10,10,11,11,12,12,13,13,14,14],"right_children":[2,4,6,8,10,12,14,16,-1,18,20,22,24,26,28,-1,-1,-1,-1,-1,-1,-1,-1,-1,-1,-1,-1,-1,-1],"split_conditions":[2E0,5.420535E0,4E0,6.7653066E-1,6.3438807E0,6.35437E0,5.659482E0,-3.2002706E-2,-4.0079253E-3,8.552705E-1,9.819658E-1,-1.5704393E-1,-8.578318E-1,2.484202E-2,-1.1292162E0,-2.8714607E-2,-1.1961601E-2,-8.686523E-3,3.304982E-3,7.958739E-3,-1.040172E-3,6.45998E-3,1.2221742E-5,4.7524166E-3,1.3578681E-2,9.876669E-3,3.5078255E-3,6.512158E-3,1.687307E-2],"split_indices":[0,2,0,282,2,2,2,76,0,243,294,243,436,92,243,0,0,0,0,0,0,0,0,0,0,0,0,0,0],"split_type":[0,0,0,0,0,0,0,0,0,0,0,0,0,0,0,0,0,0,0,0,0,0,0,0,0,0,0,0,0],"sum_hessian":[2.69E2,1.13E2,1.56E2,4.3E1,7E1,9.7E1,5.9E1,3.4E1,9E0,5.6E1,1.4E1,8E1,1.7E1,2.6E1,3.3E1,1.9E1,1.5E1,4.9E1,7E0,9E0,5E0,3.5E1,4.5E1,5E0,1.2E1,1.4E1,1.2E1,5E0,2.8E1],"tree_param":{"num_deleted":"0","num_feature":"455","num_nodes":"29","size_leaf_vector":"1"}},{"base_weights":[4.86462E-3,-1.5408221E-1,1.1891793E-1,-2.6216367E-1,-4.059434E-2,7.1631153E-3,1.6269368E-1,-1.5424137E-1,-3.977034E-1,2.0731498E-2,-1.5612029E-1,-4.0987123E-2,9.412377E-2,1.2268044E-1,2.4727227E-1,-3.3058287E-3,-1.3385389E-2,-7.0405197E-3,-2.8687153E-2,6.257587E-3,-1.4479451E-3,-1.6746296E-2,-2.850073E-4,-4.0708994E-3,4.2296196E-3,5.435903E-4,7.683426E-3,-2.6123836E-3,8.095371E-3,4.589696E-3,1.6286468E-2],"categories":[],"categories_nodes":[],"categories_segments":[],"categories_sizes":[],"default_left":[0,0,0,0,0,0,0,0,0,0,0,0,0,0,0,0,0,0,0,0,0,0,0,0,0,0,0,0,0,0,0],"id":17,"left_children":[1,3,5,7,9,11,13,15,17,19,21,23,25,27,29,-1,-1,-1,-1,-1,-1,-1,-1,-1,-1,-1,-1,-1,-1,-1,-1],"loss_changes":[4.8588033E0,1.3525E0,7.6084495E-1,7.110977E-1,4.1030258E-1,2.0032583E-1,3.1836677E-1,2.1432424E-1,4.2888498E-1,1.5124087E-1,3.696726E-1,1.023955E-1,4.6750203E-2,1.7454362E-1,9.880686E-2,0E0,0E0,0E0,0E0,0E0,0E0,0E0,0E0,0E0,0E0,0E0,0E0,0E0,0E0,0E0,0E0],"parents":[2147483647,0,0,1,1,2,2,3,3,4,4,5,5,6,6,7,7,8,8,9,9,10,10,11,11,12,12,13,13,14,14],"right_children":[2,4,6,8,10,12,14,16,18,20,22,24,26,28,30,-1,-1,-1,-1,-1,-1,-1,-1,-1,-1,-1,-1,-1,-1,-1,-1],"split_conditions":[2E0,5.7300997E0,3E0,3.8839188E-1,6.2993914E-1,6.056784E0,5.9738097E0,-1.5550828E-1,-5.3747994E-1,-5.5841523E-1,-4.1931197E-1,7.119457E-1,-6.126324E-1,-1.1831983E0,-1.084007E0,-3.3058287E-3,-1.3385389E-2,-7.0405197E-3,-2.8687153E-2,6.257587E-3,-1.4479451E-3,-1.6746296E-2,-2.850073E-4,-4.0708994E-3,4.2296196E-3,5.435903E-4,7.683426E-3,-2.6123836E-3,8.095371E-3,4.589696E-3,1.6286468E-2],"split_indices":[0,2,0,373,238,2,2,398,197,189,262,239,224,454,298,0,0,0,0,0,0,0,0,0,0,0,0,0,0,0,0],"split_type":[0,0,0,0,0,0,0,0,0,0,0,0,0,0,0,0,0,0,0,0,0,0,0,0,0,0,0,0,0,0,0],"sum_hessian":[2.64E2,1.1E2,1.54E2,5.5E1,5.5E1,4.4E1,1.1E2,3.3E1,2.2E1,3.7E1,1.8E1,2.9E1,1.5E1,7.8E1,3.2E1,1.5E1,1.8E1,6E0,1.6E1,1.2E1,2.5E1,9E0,9E0,2.4E1,5E0,5E0,1E1,5E0,7.3E1,5E0,2.7E1],"tree_param":{"num_deleted":"0","num_feature":"455","num_nodes":"31","size_leaf_vector":"1"}},{"base_weights":[5.879427E-3,-1.3891764E-1,1.0936239E-1,-2.0792304E-1,-2.5401782E-2,9.038454E-3,1.4553075E-1,-1.4617433E-1,-3.38082E-1,-1.005578E-1,6.231203E-2,-4.93727E-2,8.406911E-2,1.1326845E-1,1.523424E-2,-1.3371032E-3,-1.0989076E-2,-7.4358894E-3,-2.5647163E-2,1.8829666E-3,-9.980373E-3,-2.1447914E-3,7.407128E-3,-4.9288585E-3,3.7835168E-3,7.6550236E-3,1.5161523E-3,3.8476721E-3,9.286634E-3],"categories":[],"categories_nodes":[],"categories_segments":[],"categories_sizes":[],"default_left":[0,0,0,0,0,0,0,0,0,0,0,0,0,0,0,0,0,0,0,0,0,0,0,0,0,0,0,0,0],"id":18,"left_children":[1,3,5,7,9,11,13,15,17,19,21,23,25,27,-1,-1,-1,-1,-1,-1,-1,-1,-1,-1,-1,-1,-1,-1,-1],"loss_changes":[4.0610886E0,8.745892E-1,5.706806E-1,4.6376252E-1,3.091818E-1,2.0113704E-1,3.4806013E-1,2.254703E-1,2.9596496E-1,2.274225E-1,1.4072281E-1,1.0616841E-1,4.4725224E-2,1.6984713E-1,0E0,0E0,0E0,0E0,0E0,0E0,0E0,0E0,0E0,0E0,0E0,0E0,0E0,0E0,0E0],"parents":[2147483647,0,0,1,1,2,2,3,3,4,4,5,5,6,6,7,7,8,8,9,9,10,10,11,11,12,12,13,13],"right_children":[2,4,6,8,10,12,14,16,18,20,22,24,26,28,-1,-1,-1,-1,-1,-1,-1,-1,-1,-1,-1,-1,-1,-1,-1],"split_conditions":[2E0,5.874931E0,3E0,3.5784078E-1,3.487161E-1,5.9532433E0,6.1420374E0,-1.1372312E0,2.1315414E-2,1E0,-2.9777676E-1,9.23278E-1,3.9519256E-1,7.468196E-2,1.523424E-2,-1.3371032E-3,-1.0989076E-2,-7.4358894E-3,-2.5647163E-2,1.8829666E-3,-9.980373E-3,-2.1447914E-3,7.407128E-3,-4.9288585E-3,3.7835168E-3,7.6550236E-3,1.5161523E-3,3.8476721E-3,9.286634E-3],"split_indices":[0,2,0,373,423,2,2,214,283,13,147,328,144,285,0,0,0,0,0,0,0,0,0,0,0,0,0,0,0],"split_type":[0,0,0,0,0,0,0,0,0,0,0,0,0,0,0,0,0,0,0,0,0,0,0,0,0,0,0,0,0],"sum_hessian":[2.67E2,1.11E2,1.56E2,6.8E1,4.3E1,4.2E1,1.14E2,4.9E1,1.9E1,2.3E1,2E1,2.4E1,1.8E1,9.1E1,2.3E1,1.2E1,3.7E1,7E0,1.2E1,8E0,1.5E1,8E0,1.2E1,1.9E1,5E0,9E0,9E0,4.4E1,4.7E1],"tree_param":{"num_deleted":"0","num_feature":"455","num_nodes":"29","size_leaf_vector":"1"}},{"base_weights":[-5.5774706E-3,-1.5135136E-1,1.05285056E-1,-2.0116921E-1,-4.9894704E-3,5.7729222E-2,1.7469451E-1,-3.9505678E-1,-1.584738E-1,6.626325E-2,-1.0097681E-1,-5.72505E-2,8.531797E-2,1.0509009E-1,2.2527447E-1,-7.932789E-3,-3.3548176E-2,-2.6377463E-3,-1.2181674E-2,7.7332286E-3,-1.6292614E-4,-1.0763932E-3,-1.0733283E-2,2.7983175E-3,-6.060985E-3,1.0233624E-3,7.804073E-3,1.2361392E-3,8.118827E-3,5.977482E-3,1.4435753E-2],"categories":[],"categories_nodes":[],"categories_segments":[],"categories_sizes":[],"default_left":[0,0,0,0,0,0,0,0,0,0,0,0,0,0,0,0,0,0,0,0,0,0,0,0,0,0,0,0,0,0,0],"id":19,"left_children":[1,3,5,7,9,11,13,15,17,19,21,23,25,27,29,-1,-1,-1,-1,-1,-1,-1,-1,-1,-1,-1,-1,-1,-1,-1,-1],"loss_changes":[4.266016E0,8.29216E-1,4.7495377E-1,5.784271E-1,2.2540222E-1,3.0160654E-1,1.6388702E-1,4.5593095E-1,3.5459113E-1,8.277454E-2,8.4154665E-2,9.581178E-2,2.2466666E-1,6.8476886E-2,1.5590787E-2,0E0,0E0,0E0,0E0,0E0,0E0,0E0,0E0,0E0,0E0,0E0,0E0,0E0,0E0,0E0,0E0],"parents":[2147483647,0,0,1,1,2,2,3,3,4,4,5,5,6,6,7,7,8,8,9,9,10,10,11,11,12,12,13,13,14,14],"right_children":[2,4,6,8,10,12,14,16,18,20,22,24,26,28,30,-1,-1,-1,-1,-1,-1,-1,-1,-1,-1,-1,-1,-1,-1,-1,-1],"split_conditions":[2E0,6.0185933E0,4E0,-6.4633006E-1,-2.1436304E-1,4.6634393E0,5.659482E0,-8.508178E-2,-4.9825096E-1,-1.2876193E-1,1.3623849E-1,-3.0037844E-1,-2.0508389E-1,-6.329266E-1,-1.1290238E0,-7.932789E-3,-3.3548176E-2,-2.6377463E-3,-1.2181674E-2,7.7332286E-3,-1.6292614E-4,-1.0763932E-3,-1.0733283E-2,2.7983175E-3,-6.060985E-3,1.0233624E-3,7.804073E-3,1.2361392E-3,8.118827E-3,5.977482E-3,1.4435753E-2],"split_indices":[0,2,0,411,113,2,2,202,309,207,238,163,341,122,170,0,0,0,0,0,0,0,0,0,0,0,0,0,0,0,0],"split_type":[0,0,0,0,0,0,0,0,0,0,0,0,0,0,0,0,0,0,0,0,0,0,0,0,0,0,0,0,0,0,0],"sum_hessian":[2.6E2,1.12E2,1.48E2,8.3E1,2.9E1,9E1,5.8E1,1.2E1,7.1E1,1.7E1,1.2E1,1.7E1,7.3E1,2.7E1,3.1E1,6E0,6E0,2.1E1,5E1,8E0,9E0,7E0,5E0,5E0,1.2E1,3E1,4.3E1,8E0,1.9E1,5E0,2.6E1],"tree_param":{"num_deleted":"0","num_feature":"455","num_nodes":"31","size_leaf_vector":"1"}},{"base_weights":[-7.426595E-4,-1.4486928E-1,9.911948E-2,-3.1209588E-1,-1.0117391E-1,5.2377988E-2,1.6248254E-1,-1.7552294E-1,-3.210554E-2,-7.021147E-2,-2.2979331E-1,-9.519902E-2,7.50498E-2,1.23302944E-1,2.2607063E-1,-1.2037958E-2,-5.154926E-3,-7.628238E-3,-6.6530035E-4,-1.7265333E-2,-4.383273E-3,-2.0356928E-3,-8.281384E-3,9.42769E-3,2.8748086E-3,2.0744256E-3,9.496883E-3,5.7357643E-3,1.5191933E-2],"categories":[],"categories_nodes":[],"categories_segments":[],"categories_sizes":[],"default_left":[0,0,0,0,0,0,0,0,0,0,0,0,0,0,0,0,0,0,0,0,0,0,0,0,0,0,0,0,0],"id":20,"left_children":[1,3,5,7,9,11,13,15,-1,17,19,21,23,25,27,-1,-1,-1,-1,-1,-1,-1,-1,-1,-1,-1,-1,-1,-1],"loss_changes":[3.7276661E0,7.113929E-1,4.361167E-1,4.517188E-1,3.1419796E-1,3.1876063E-1,1.03696465E-1,1.5254021E-3,0E0,2.4287182E-1,1.03315175E-1,2.4744488E-2,1.6312736E-1,1.2561405E-1,2.946043E-2,0E0,0E0,0E0,0E0,0E0,0E0,0E0,0E0,0E0,0E0,0E0,0E0,0E0,0E0],"parents":[2147483647,0,0,1,1,2,2,3,3,4,4,5,5,6,6,7,7,9,9,10,10,11,11,12,12,13,13,14,14],"right_children":[2,4,6,8,10,12,14,16,-1,18,20,22,24,26,28,-1,-1,-1,-1,-1,-1,-1,-1,-1,-1,-1,-1,-1,-1],"split_conditions":[2E0,4.276666E0,4E0,5.5577254E-1,8.7991625E-1,3.8286414E0,5.1808953E-1,2.049202E-1,-3.210554E-2,6.648038E-2,-1.2125977E-1,1.0008845E-1,-5.702504E-1,5.236442E0,-4.0327123E-1,-1.2037958E-2,-5.154926E-3,-7.628238E-3,-6.6530035E-4,-1.7265333E-2,-4.383273E-3,-2.0356928E-3,-8.281384E-3,9.42769E-3,2.8748086E-3,2.0744256E-3,9.496883E-3,5.7357643E-3,1.5191933E-2],"split_indices":[0,2,0,429,437,2,115,156,0,399,305,246,339,2,150,0,0,0,0,0,0,0,0,0,0,0,0,0,0],"split_type":[0,0,0,0,0,0,0,0,0,0,0,0,0,0,0,0,0,0,0,0,0,0,0,0,0,0,0,0,0],"sum_hessian":[2.55E2,1.04E2,1.51E2,1.9E1,8.5E1,8.9E1,6.2E1,1.4E1,5E0,7.1E1,1.4E1,1.1E1,7.8E1,4.2E1,2E1,9E0,5E0,3.5E1,3.6E1,9E0,5E0,6E0,5E0,1.7E1,6.1E1,1.3E1,2.9E1,5E0,1.5E1],"tree_param":{"num_deleted":"0","num_feature":"455","num_nodes":"29","size_leaf_vector":"1"}},{"base_weights":[-4.8044887E-3,-1.4011301E-1,9.948456E-2,-1.9044335E-1,-3.3557557E-2,6.013262E-2,1.6198659E-1,-2.203269E-1,3.2305068E-3,-1.2357781E-1,4.7237895E-2,7.025938E-2,-5.148157E-3,1.5004573E-3,1.7443521E-1,-7.0843203E-3,-1.9118631E-2,-1.0977824E-2,-2.0122633E-3,-3.8578676E-3,5.82606E-3,-1.5820796E-3,5.0737453E-3,3.0910277E-3,1.1312079E-2],"categories":[],"categories_nodes":[],"categories_segments":[],"categories_sizes":[],"default_left":[0,0,0,0,0,0,0,0,0,0,0,0,0,0,0,0,0,0,0,0,0,0,0,0,0],"id":21,"left_children":[1,3,5,7,9,11,13,15,-1,17,19,21,-1,-1,23,-1,-1,-1,-1,-1,-1,-1,-1,-1,-1],"loss_changes":[3.696789E0,5.985975E-1,3.4453595E-1,5.8583355E-1,2.9533097E-1,1.5097484E-1,8.676696E-2,6.18438E-1,0E0,8.9322776E-2,1.3484012E-1,1.2746325E-1,0E0,0E0,6.896126E-2,0E0,0E0,0E0,0E0,0E0,0E0,0E0,0E0,0E0,0E0],"parents":[2147483647,0,0,1,1,2,2,3,3,4,4,5,5,6,6,7,7,9,9,10,10,11,11,14,14],"right_children":[2,4,6,8,10,12,14,16,-1,18,20,22,-1,-1,24,-1,-1,-1,-1,-1,-1,-1,-1,-1,-1],"split_conditions":[2E0,3.4534928E-1,4E0,9.572584E-1,1E0,1.1886371E0,-1.2375569E0,-1.167381E-1,3.2305068E-3,-4.5378453E-1,-4.864464E-1,-1.0024465E0,-5.148157E-3,1.5004573E-3,-1.5095255E0,-7.0843203E-3,-1.9118631E-2,-1.0977824E-2,-2.0122633E-3,-3.8578676E-3,5.82606E-3,-1.5820796E-3,5.0737453E-3,3.0910277E-3,1.1312079E-2],"split_indices":[0,127,0,72,0,418,95,297,0,323,162,256,0,0,416,0,0,0,0,0,0,0,0,0,0],"split_type":[0,0,0,0,0,0,0,0,0,0,0,0,0,0,0,0,0,0,0,0,0,0,0,0,0],"sum_hessian":[2.58E2,1.12E2,1.46E2,7.5E1,3.7E1,9.2E1,5.4E1,6.7E1,8E0,1.7E1,2E1,8.7E1,5E0,5E0,4.9E1,3.5E1,3.2E1,9E0,8E0,6E0,1.4E1,1.1E1,7.6E1,6E0,4.3E1],"tree_param":{"num_deleted":"0","num_feature":"455","num_nodes":"25","size_leaf_vector":"1"}},{"base_weights":[-3.7406044E-4,-1.2582797E-1,8.8285014E-2,-2.825721E-2,-9.9416725E-2,5.4562677E-2,1.6704507E-1,3.5505623E-2,-1.2756781E-1,-2.978399E-2,8.203318E-2,1.8237056E-1,2.0359857E-3,-8.1324694E-4,5.5817077E-3,-8.787443E-3,3.7434865E-3,1.0782846E-3,-5.7871854E-3,2.5783721E-3,7.3737563E-3,4.326457E-3,1.1660644E-2],"categories":[],"categories_nodes":[],"categories_segments":[],"categories_sizes":[],"default_left":[0,0,0,0,0,0,0,0,0,0,0,0,0,0,0,0,0,0,0,0,0,0,0],"id":22,"left_children":[1,3,5,-1,7,9,11,13,15,17,19,21,-1,-1,-1,-1,-1,-1,-1,-1,-1,-1,-1],"loss_changes":[2.8473647E0,8.7256885E-1,3.8016713E-1,0E0,3.9267802E-1,2.5512746E-1,7.738352E-2,5.6140892E-2,3.1968844E-1,9.2613466E-2,1.2031877E-1,2.34617E-2,0E0,0E0,0E0,0E0,0E0,0E0,0E0,0E0,0E0,0E0,0E0],"parents":[2147483647,0,0,1,1,2,2,4,4,5,5,6,6,7,7,8,8,9,9,10,10,11,11],"right_children":[2,4,6,-1,8,10,12,14,16,18,20,22,-1,-1,-1,-1,-1,-1,-1,-1,-1,-1,-1],"split_conditions":[2E0,-1.5773655E0,6.0450053E0,-2.825721E-2,-1.1390251E0,3E0,1.1606358E0,-1.61299E-1,6.3578424E0,4.779684E-1,-1.0510243E-3,-1.1954864E0,2.0359857E-3,-8.1324694E-4,5.5817077E-3,-8.787443E-3,3.7434865E-3,1.0782846E-3,-5.7871854E-3,2.5783721E-3,7.3737563E-3,4.326457E-3,1.1660644E-2],"split_indices":[0,368,2,0,437,0,84,155,2,119,169,193,0,0,0,0,0,0,0,0,0,0,0],"split_type":[0,0,0,0,0,0,0,0,0,0,0,0,0,0,0,0,0,0,0,0,0,0,0],"sum_hessian":[2.52E2,1.04E2,1.48E2,5E0,9.9E1,1.06E2,4.2E1,1.7E1,8.2E1,2.6E1,8E1,3.7E1,5E0,1E1,7E0,7.5E1,7E0,1.6E1,1E1,4.3E1,3.7E1,5E0,3.2E1],"tree_param":{"num_deleted":"0","num_feature":"455","num_nodes":"23","size_leaf_vector":"1"}},{"base_weights":[3.7509273E-3,-1.1667271E-1,8.6888954E-2,-2.53729E-2,-8.957152E-2,6.8250694E-3,1.2150488E-1,-1.5999469E-1,-8.080457E-3,-4.7436804E-2,8.110813E-2,8.978063E-2,1.8925592E-1,-6.2841866E-3,-1.5881414E-2,-4.103758E-3,4.165159E-3,1.7117119E-3,-4.452066E-3,4.162788E-5,7.2729704E-3,6.039066E-3,-1.6668695E-3,1.248819E-2,3.7414639E-3],"categories":[],"categories_nodes":[],"categories_segments":[],"categories_sizes":[],"default_left":[0,0,0,0,0,0,0,0,0,0,0,0,0,0,0,0,0,0,0,0,0,0,0,0,0],"id":23,"left_children":[1,3,5,-1,7,9,11,13,15,17,19,21,23,-1,-1,-1,-1,-1,-1,-1,-1,-1,-1,-1,-1],"loss_changes":[2.5732799E0,7.9559946E-1,4.1960728E-1,0E0,5.6556153E-1,2.0117044E-1,1.9384813E-1,2.511748E-1,2.3386905E-1,6.3195296E-2,6.756231E-2,1.02716684E-1,5.0711274E-2,0E0,0E0,0E0,0E0,0E0,0E0,0E0,0E0,0E0,0E0,0E0,0E0],"parents":[2147483647,0,0,1,1,2,2,4,4,5,5,6,6,7,7,8,8,9,9,10,10,11,11,12,12],"right_children":[2,4,6,-1,8,10,12,14,16,18,20,22,24,-1,-1,-1,-1,-1,-1,-1,-1,-1,-1,-1,-1],"split_conditions":[2E0,-1.6241516E0,3E0,-2.53729E-2,5.7300997E0,1.8254122E-1,6.0450053E0,1.314639E-1,3.487161E-1,-9.1977847E-1,-3.1581032E-1,1.3494465E0,6.0274017E-1,-6.2841866E-3,-1.5881414E-2,-4.103758E-3,4.165159E-3,1.7117119E-3,-4.452066E-3,4.162788E-5,7.2729704E-3,6.039066E-3,-1.6668695E-3,1.248819E-2,3.7414639E-3],"split_indices":[0,182,0,0,2,429,2,231,423,195,233,245,171,0,0,0,0,0,0,0,0,0,0,0,0],"split_type":[0,0,0,0,0,0,0,0,0,0,0,0,0,0,0,0,0,0,0,0,0,0,0,0,0],"sum_hessian":[2.53E2,1.03E2,1.5E2,6E0,9.7E1,4.6E1,1.04E2,5.1E1,4.6E1,2.7E1,1.9E1,7.4E1,3E1,3.6E1,1.5E1,2.6E1,2E1,7E0,2E1,7E0,1.2E1,6.8E1,6E0,2.5E1,5E0],"tree_param":{"num_deleted":"0","num_feature":"455","num_nodes":"25","size_leaf_vector":"1"}},{"base_weights":[-5.55791E-4,-1.084931E-1,7.65495E-2,-8.29172E-2,-3.0354342E-1,3.7041135E-2,1.3721125E-1,-1.033199E-1,6.951933E-2,-5.0629354E-3,-2.6158674E-2,-1.3253565E-3,9.082049E-2,1.9020601E-3,1.5458752E-1,4.13139E-3,-7.464669E-3,-2.3581623E-4,8.015945E-3,2.2298044E-3,-4.6902206E-3,7.400275E-3,1.210783E-3,1.2163428E-2,6.2453635E-3],"categories":[],"categories_nodes":[],"categories_segments":[],"categories_sizes":[],"default_left":[0,0,0,0,0,0,0,0,0,0,0,0,0,0,0,0,0,0,0,0,0,0,0,0,0],"id":24,"left_children":[1,3,5,7,9,11,13,15,17,-1,-1,19,21,-1,23,-1,-1,-1,-1,-1,-1,-1,-1,-1,-1],"loss_changes":[2.1971152E0,4.9840677E-1,3.589186E-1,3.2537717E-1,2.7471626E-1,1.9831996E-1,1.0020137E-1,3.4032905E-1,6.223637E-2,0E0,0E0,1.7735495E-1,8.690444E-2,0E0,8.176756E-2,0E0,0E0,0E0,0E0,0E0,0E0,0E0,0E0,0E0,0E0],"parents":[2147483647,0,0,1,1,2,2,3,3,4,4,5,5,6,6,7,7,8,8,11,11,12,12,14,14],"right_children":[2,4,6,8,10,12,14,16,18,-1,-1,20,22,-1,24,-1,-1,-1,-1,-1,-1,-1,-1,-1,-1],"split_conditions":[2E0,1.2062204E0,4E0,1.2431489E0,-2.9702508E-1,1.8254122E-1,-1.2556748E0,-1.067577E0,1.9904985E-1,-5.0629354E-3,-2.6158674E-2,3.4599334E-1,1.6314553E-1,1.9020601E-3,-1.2323981E-2,4.13139E-3,-7.464669E-3,-2.3581623E-4,8.015945E-3,2.2298044E-3,-4.6902206E-3,7.400275E-3,1.210783E-3,1.2163428E-2,6.2453635E-3],"split_indices":[0,447,0,423,245,429,383,247,147,0,0,361,145,0,123,0,0,0,0,0,0,0,0,0,0],"split_type":[0,0,0,0,0,0,0,0,0,0,0,0,0,0,0,0,0,0,0,0,0,0,0,0,0],"sum_hessian":[2.6E2,1.08E2,1.52E2,9.8E1,1E1,9.4E1,5.8E1,8.7E1,1.1E1,5E0,5E0,5.6E1,3.8E1,9E0,4.9E1,9E0,7.8E1,6E0,5E0,3.8E1,1.8E1,2.5E1,1.3E1,2.2E1,2.7E1],"tree_param":{"num_deleted":"0","num_feature":"455","num_nodes":"25","size_leaf_vector":"1"}},{"base_weights":[-6.060798E-3,-1.1799533E-1,7.9402864E-2,-2.8892392E-2,-9.360232E-2,3.5036443E-5,1.07698604E-1,-1.2705775E-1,1.321929E-2,-4.6034846E-2,6.913597E-2,8.469115E-2,1.7641245E-1,-1.8228032E-3,-1.0769445E-2,3.4697736E-3,-4.986368E-3,-6.6507584E-3,-7.878382E-5,1.8621127E-4,6.6355406E-3,3.9795036E-3,1.0495067E-2,1.2326173E-2,5.1590865E-3],"categories":[],"categories_nodes":[],"categories_segments":[],"categories_sizes":[],"default_left":[0,0,0,0,0,0,0,0,0,0,0,0,0,0,0,0,0,0,0,0,0,0,0,0,0],"id":25,"left_children":[1,3,5,-1,7,9,11,13,15,17,19,21,23,-1,-1,-1,-1,-1,-1,-1,-1,-1,-1,-1,-1],"loss_changes":[2.6303477E0,9.651387E-1,3.5033274E-1,0E0,4.107682E-1,1.4325462E-1,1.5192592E-1,4.3010604E-1,1.3422799E-1,7.7967584E-2,4.858792E-2,1.259371E-1,3.5534203E-2,0E0,0E0,0E0,0E0,0E0,0E0,0E0,0E0,0E0,0E0,0E0,0E0],"parents":[2147483647,0,0,1,1,2,2,4,4,5,5,6,6,7,7,8,8,9,9,10,10,11,11,12,12],"right_children":[2,4,6,-1,8,10,12,14,16,18,20,22,24,-1,-1,-1,-1,-1,-1,-1,-1,-1,-1,-1,-1],"split_conditions":[2E0,-1.43335E0,3E0,-2.8892392E-2,6.0185933E0,1.8254122E-1,6.1420374E0,-2.801781E-1,4.9606106E-1,-4.9503663E-1,-6.0523695E-1,8.476908E-1,1.7259744E-1,-1.8228032E-3,-1.0769445E-2,3.4697736E-3,-4.986368E-3,-6.6507584E-3,-7.878382E-5,1.8621127E-4,6.6355406E-3,3.9795036E-3,1.0495067E-2,1.2326173E-2,5.1590865E-3],"split_indices":[0,417,0,0,2,429,2,341,90,116,408,95,389,0,0,0,0,0,0,0,0,0,0,0,0],"split_type":[0,0,0,0,0,0,0,0,0,0,0,0,0,0,0,0,0,0,0,0,0,0,0,0,0],"sum_hessian":[2.71E2,1.17E2,1.54E2,5E0,1.12E2,4.1E1,1.13E2,8.5E1,2.7E1,2.5E1,1.6E1,8.8E1,2.5E1,3.1E1,5.4E1,1.9E1,8E0,9E0,1.6E1,7E0,9E0,7.6E1,1.2E1,1.7E1,8E0],"tree_param":{"num_deleted":"0","num_feature":"455","num_nodes":"25","size_leaf_vector":"1"}},{"base_weights":[-1.8500449E-3,-1.6727558E-1,4.0485326E-2,-1.1722475E-1,-2.5921078E-2,-1.5874408E-2,9.259962E-2,-7.357925E-2,-1.3606161E-2,-1.3951628E-1,7.832932E-3,1.00945726E-1,-2.4681687E-3,2.4947422E-3,-5.8662067E-3,-1.7321693E-3,-1.7360082E-2,-1.7181849E-3,4.543404E-3,-2.3948294E-3,6.5225605E-3],"categories":[],"categories_nodes":[],"categories_segments":[],"categories_sizes":[],"default_left":[0,0,0,0,0,0,0,0,0,0,0,0,0,0,0,0,0,0,0,0,0],"id":26,"left_children":[1,3,5,7,-1,9,11,13,-1,15,17,19,-1,-1,-1,-1,-1,-1,-1,-1,-1],"loss_changes":[1.8904426E0,6.274953E-1,6.344267E-1,2.0090431E-1,0E0,3.0996373E-1,1.3331628E-1,1.1399001E-1,0E0,2.6510188E-1,2.271698E-1,1.2459755E-1,0E0,0E0,0E0,0E0,0E0,0E0,0E0,0E0,0E0],"parents":[2147483647,0,0,1,1,2,2,3,3,5,5,6,6,7,7,9,9,10,10,11,11],"right_children":[2,4,6,8,-1,10,12,14,-1,16,18,20,-1,-1,-1,-1,-1,-1,-1,-1,-1],"split_conditions":[1E0,1.1063701E0,3E0,6.5773714E-1,-2.5921078E-2,-8.453184E-1,1.4402778E0,-1.5599188E0,-1.3606161E-2,-3.5621104E-1,1.8254122E-1,-1.9663044E0,-2.4681687E-3,2.4947422E-3,-5.8662067E-3,-1.7321693E-3,-1.7360082E-2,-1.7181849E-3,4.543404E-3,-2.3948294E-3,6.5225605E-3],"split_indices":[0,155,0,238,0,218,300,202,0,446,429,419,0,0,0,0,0,0,0,0,0],"split_type":[0,0,0,0,0,0,0,0,0,0,0,0,0,0,0,0,0,0,0,0,0],"sum_hessian":[2.66E2,5.3E1,2.13E2,4.7E1,6E0,1.03E2,1.1E2,3.6E1,1.1E1,1.5E1,8.8E1,1.04E2,6E0,6E0,3E1,1E1,5E0,5.8E1,3E1,5E0,9.9E1],"tree_param":{"num_deleted":"0","num_feature":"455","num_nodes":"21","size_leaf_vector":"1"}},{"base_weights":[-4.1204044E-3,-1.680334E-1,3.8443066E-2,-1.15343176E-1,-2.2924248E-2,-1.8586239E-2,8.9693986E-2,-1.6223499E-1,-4.210919E-3,-8.627201E-2,2.4298187E-2,6.770562E-2,1.6079707E-1,-1.3322511E-2,-5.263477E-3,-2.924037E-3,4.0174173E-3,-2.6622424E-3,-1.05987955E-2,-6.328022E-3,2.7961652E-3,2.9463614E-3,9.619867E-3,5.7072137E-3,1.1513935E-2],"categories":[],"categories_nodes":[],"categories_segments":[],"categories_sizes":[],"default_left":[0,0,0,0,0,0,0,0,0,0,0,0,0,0,0,0,0,0,0,0,0,0,0,0,0],"id":27,"left_children":[1,3,5,7,-1,9,11,13,15,17,19,21,23,-1,-1,-1,-1,-1,-1,-1,-1,-1,-1,-1,-1],"loss_changes":[1.8617468E0,5.321338E-1,6.2296855E-1,2.4355978E-1,0E0,3.002644E-1,1.533317E-1,1.0809851E-1,5.722391E-2,1.357966E-1,1.9506897E-1,1.3758245E-1,1.4559865E-2,0E0,0E0,0E0,0E0,0E0,0E0,0E0,0E0,0E0,0E0,0E0,0E0],"parents":[2147483647,0,0,1,1,2,2,3,3,5,5,6,6,7,7,8,8,9,9,10,10,11,11,12,12],"right_children":[2,4,6,8,-1,10,12,14,16,18,20,22,24,-1,-1,-1,-1,-1,-1,-1,-1,-1,-1,-1,-1],"split_conditions":[1E0,1.1063701E0,3E0,2.154263E-1,-2.2924248E-2,5.4510384E0,6.1420374E0,4.067217E-1,-5.6155384E-1,7.9665285E-1,-1.1269802E0,8.476908E-1,-1.9763322E-1,-1.3322511E-2,-5.263477E-3,-2.924037E-3,4.0174173E-3,-2.6622424E-3,-1.05987955E-2,-6.328022E-3,2.7961652E-3,2.9463614E-3,9.619867E-3,5.7072137E-3,1.1513935E-2],"split_indices":[0,155,0,357,0,2,2,402,264,336,128,95,137,0,0,0,0,0,0,0,0,0,0,0,0],"split_type":[0,0,0,0,0,0,0,0,0,0,0,0,0,0,0,0,0,0,0,0,0,0,0,0,0],"sum_hessian":[2.63E2,5.3E1,2.1E2,4.5E1,8E0,1E2,1.1E2,3.1E1,1.4E1,3.8E1,6.2E1,8.7E1,2.3E1,1.5E1,1.6E1,9E0,5E0,2.8E1,1E1,8E0,5.4E1,7.5E1,1.2E1,1E1,1.3E1],"tree_param":{"num_deleted":"0","num_feature":"455","num_nodes":"25","size_leaf_vector":"1"}},{"base_weights":[-8.988229E-3,-1.6323794E-1,3.208284E-2,-1.0946119E-1,-2.300047E-2,-4.9970638E-2,6.785703E-2,-4.327031E-2,-1.9449183E-1,-1.0657883E-1,2.1290565E-2,4.7052663E-2,1.4132774E-1,2.1822368E-4,-5.642867E-3,-1.3640366E-2,-4.112103E-3,-3.3203652E-3,-1.3724003E-2,-4.0152052E-4,6.9087185E-3,9.871754E-4,7.015742E-3,3.513087E-3,9.901683E-3],"categories":[],"categories_nodes":[],"categories_segments":[],"categories_sizes":[],"default_left":[0,0,0,0,0,0,0,0,0,0,0,0,0,0,0,0,0,0,0,0,0,0,0,0,0],"id":28,"left_children":[1,3,5,7,-1,9,11,13,15,17,19,21,23,-1,-1,-1,-1,-1,-1,-1,-1,-1,-1,-1,-1],"loss_changes":[1.6576264E0,5.6708217E-1,6.144088E-1,2.4769646E-1,0E0,2.6271218E-1,2.0833439E-1,6.975742E-2,5.158609E-2,2.0001268E-1,8.033003E-2,2.4418339E-1,4.149133E-2,0E0,0E0,0E0,0E0,0E0,0E0,0E0,0E0,0E0,0E0,0E0,0E0],"parents":[2147483647,0,0,1,1,2,2,3,3,5,5,6,6,7,7,8,8,9,9,10,10,11,11,12,12],"right_children":[2,4,6,8,-1,10,12,14,16,18,20,22,24,-1,-1,-1,-1,-1,-1,-1,-1,-1,-1,-1,-1],"split_conditions":[1E0,9.1716856E-1,5.26269E0,2.63298E-1,-2.300047E-2,3E0,6.340359E0,-1.3949157E-1,1.2159604E0,7.674798E-1,5.4998225E-1,4E0,-6.8100506E-1,2.1822368E-4,-5.642867E-3,-1.3640366E-2,-4.112103E-3,-3.3203652E-3,-1.3724003E-2,-4.0152052E-4,6.9087185E-3,9.871754E-4,7.015742E-3,3.513087E-3,9.901683E-3],"split_indices":[0,155,2,418,0,0,2,284,181,183,115,0,452,0,0,0,0,0,0,0,0,0,0,0,0],"split_type":[0,0,0,0,0,0,0,0,0,0,0,0,0,0,0,0,0,0,0,0,0,0,0,0,0],"sum_hessian":[2.58E2,5.3E1,2.05E2,4.5E1,8E0,6.2E1,1.43E2,2.7E1,1.8E1,3.4E1,2.8E1,1.14E2,2.9E1,1.5E1,1.2E1,1.3E1,5E0,2.6E1,8E0,2.3E1,5E0,8.1E1,3.3E1,8E0,2.1E1],"tree_param":{"num_deleted":"0","num_feature":"455","num_nodes":"25","size_leaf_vector":"1"}},{"base_weights":[-1.4251231E-3,-8.545912E-2,6.1483227E-2,-1.8491167E-1,-1.7217042E-2,2.7964225E-2,1.0954386E-1,-1.2667337E-1,-2.4159424E-2,-7.875476E-2,4.358815E-2,-5.7028905E-2,4.4263743E-2,4.153331E-4,1.2212434E-1,-1.0044505E-2,-3.1119667E-3,-8.022605E-3,9.6064183E-4,5.3300415E-3,-2.0770205E-3,1.0882169E-3,-6.3453484E-3,4.9573462E-3,7.391633E-4,5.4940004E-3,1.0587653E-2],"categories":[],"categories_nodes":[],"categories_segments":[],"categories_sizes":[],"default_left":[0,0,0,0,0,0,0,0,0,0,0,0,0,0,0,0,0,0,0,0,0,0,0,0,0,0,0],"id":29,"left_children":[1,3,5,7,9,11,13,15,-1,17,19,21,23,-1,25,-1,-1,-1,-1,-1,-1,-1,-1,-1,-1,-1,-1],"loss_changes":[1.432561E0,7.8090715E-1,2.4356973E-1,4.940009E-1,2.7253425E-1,1.3527125E-1,7.964414E-2,1.0452551E-1,0E0,1.9176474E-1,1.370734E-1,6.243776E-2,9.5991775E-2,0E0,6.0666442E-2,0E0,0E0,0E0,0E0,0E0,0E0,0E0,0E0,0E0,0E0,0E0,0E0],"parents":[2147483647,0,0,1,1,2,2,3,3,4,4,5,5,6,6,7,7,9,9,10,10,11,11,12,12,14,14],"right_children":[2,4,6,8,10,12,14,16,-1,18,20,22,24,-1,26,-1,-1,-1,-1,-1,-1,-1,-1,-1,-1,-1,-1],"split_conditions":[2E0,5.420535E0,4E0,9.813614E-1,1E0,-1.0500053E0,-1.5109183E0,2.9995194E-1,-2.4159424E-2,2.6075214E-1,4.9567857E-1,-7.837321E-1,-2.0464878E-1,4.153331E-4,6.127998E-1,-1.0044505E-2,-3.1119667E-3,-8.022605E-3,9.6064183E-4,5.3300415E-3,-2.0770205E-3,1.0882169E-3,-6.3453484E-3,4.9573462E-3,7.391633E-4,5.4940004E-3,1.0587653E-2],"split_indices":[0,2,0,117,0,98,445,333,0,187,168,79,326,0,115,0,0,0,0,0,0,0,0,0,0,0,0],"split_type":[0,0,0,0,0,0,0,0,0,0,0,0,0,0,0,0,0,0,0,0,0,0,0,0,0,0,0],"sum_hessian":[2.67E2,1.14E2,1.53E2,4.5E1,6.9E1,9.2E1,6.1E1,3.8E1,7E0,3.4E1,3.5E1,1.4E1,7.8E1,7E0,5.4E1,2.3E1,1.5E1,2.1E1,1.3E1,2.2E1,1.3E1,6E0,8E0,3.4E1,4.4E1,3.8E1,1.6E1],"tree_param":{"num_deleted":"0","num_feature":"455","num_nodes":"27","size_leaf_vector":"1"}},{"base_weights":[-4.460467E-3,-8.1992984E-2,5.4110747E-2,-1.9347605E-1,-3.341884E-2,3.3430822E-2,1.0834353E-1,-3.5815E-1,-1.0258991E-1,-5.8456484E-2,6.7662984E-2,1.7070713E-2,1.0737317E-1,2.3949714E-2,1.3585705E-1,-5.05543E-3,-3.1782858E-2,-9.34072E-3,-2.0907263E-3,-1.0382964E-2,-2.152535E-3,6.721663E-3,5.859389E-4,1.8630442E-3,-3.9214515E-3,1.6626298E-3,8.1326105E-3,3.5489558E-3,-7.702392E-4,3.8257933E-3,9.769818E-3],"categories":[],"categories_nodes":[],"categories_segments":[],"categories_sizes":[],"default_left":[0,0,0,0,0,0,0,0,0,0,0,0,0,0,0,0,0,0,0,0,0,0,0,0,0,0,0,0,0,0,0],"id":30,"left_children":[1,3,5,7,9,11,13,15,17,19,21,23,25,27,29,-1,-1,-1,-1,-1,-1,-1,-1,-1,-1,-1,-1,-1,-1,-1,-1],"loss_changes":[1.2667783E0,6.368918E-1,1.7107916E-1,4.6531177E-1,2.2556385E-1,1.3907933E-1,9.33373E-2,4.746182E-1,8.265883E-2,1.6871631E-1,4.4046745E-2,1.1814132E-1,3.9614633E-2,1.835217E-2,4.1462183E-2,0E0,0E0,0E0,0E0,0E0,0E0,0E0,0E0,0E0,0E0,0E0,0E0,0E0,0E0,0E0,0E0],"parents":[2147483647,0,0,1,1,2,2,3,3,4,4,5,5,6,6,7,7,8,8,9,9,10,10,11,11,12,12,13,13,14,14],"right_children":[2,4,6,8,10,12,14,16,18,20,22,24,26,28,30,-1,-1,-1,-1,-1,-1,-1,-1,-1,-1,-1,-1,-1,-1,-1,-1],"split_conditions":[2E0,4.919981E0,6.063785E0,-3.6192298E-1,6.3438807E0,9.08791E-1,-9.139949E-1,-8.350782E-1,-2.3899025E-1,-1.0023307E0,-3.1532276E-1,9.736689E-1,-6.717001E-1,-7.030906E-4,3E0,-5.05543E-3,-3.1782858E-2,-9.34072E-3,-2.0907263E-3,-1.0382964E-2,-2.152535E-3,6.721663E-3,5.859389E-4,1.8630442E-3,-3.9214515E-3,1.6626298E-3,8.1326105E-3,3.5489558E-3,-7.702392E-4,3.8257933E-3,9.769818E-3],"split_indices":[0,2,2,85,2,115,209,81,189,226,256,326,200,407,0,0,0,0,0,0,0,0,0,0,0,0,0,0,0,0,0],"split_type":[0,0,0,0,0,0,0,0,0,0,0,0,0,0,0,0,0,0,0,0,0,0,0,0,0,0,0,0,0,0,0],"sum_hessian":[2.75E2,1.18E2,1.57E2,3.4E1,8.4E1,1.16E2,4.1E1,1E1,2.4E1,6.8E1,1.6E1,9.7E1,1.9E1,1.1E1,3E1,5E0,5E0,1.2E1,1.2E1,9E0,5.9E1,8E0,8E0,8.4E1,1.3E1,6E0,1.3E1,5E0,6E0,1E1,2E1],"tree_param":{"num_deleted":"0","num_feature":"455","num_nodes":"31","size_leaf_vector":"1"}},{"base_weights":[-8.423367E-3,-1.3301505E-1,2.8021319E-2,-8.925053E-2,-1.8943038E-2,-6.4844275E-3,8.857702E-2,-1.443534E-1,-3.170853E-2,-5.949279E-2,4.155047E-2,1.0610525E-1,2.030766E-2,-1.094458E-2,-1.9160317E-3,-4.925107E-3,9.800729E-4,-2.2169421E-3,-1.41436225E-2,4.4952803E-3,4.649456E-4,4.1507906E-3,8.4483735E-3,-2.153079E-3,2.8464482E-3],"categories":[],"categories_nodes":[],"categories_segments":[],"categories_sizes":[],"default_left":[0,0,0,0,0,0,0,0,0,0,0,0,0,0,0,0,0,0,0,0,0,0,0,0,0],"id":31,"left_children":[1,3,5,7,-1,9,11,13,15,17,19,21,23,-1,-1,-1,-1,-1,-1,-1,-1,-1,-1,-1,-1],"loss_changes":[1.2243633E0,4.3139255E-1,4.3785834E-1,1.5572351E-1,0E0,3.4868783E-1,8.663529E-2,9.958482E-2,7.044854E-2,2.4082401E-1,8.00535E-2,5.7398915E-2,3.0848932E-2,0E0,0E0,0E0,0E0,0E0,0E0,0E0,0E0,0E0,0E0,0E0,0E0],"parents":[2147483647,0,0,1,1,2,2,3,3,5,5,6,6,7,7,8,8,9,9,10,10,11,11,12,12],"right_children":[2,4,6,8,-1,10,12,14,16,18,20,22,24,-1,-1,-1,-1,-1,-1,-1,-1,-1,-1,-1,-1],"split_conditions":[1E0,1.1063701E0,5.9532433E0,-9.245533E-2,-1.8943038E-2,3E0,3.7809908E-1,4.2788956E-1,-2.2046159E-1,1.4041485E0,-4.6283877E-1,6.35437E0,-7.51371E-1,-1.094458E-2,-1.9160317E-3,-4.925107E-3,9.800729E-4,-2.2169421E-3,-1.41436225E-2,4.4952803E-3,4.649456E-4,4.1507906E-3,8.4483735E-3,-2.153079E-3,2.8464482E-3],"split_indices":[0,155,2,427,0,0,270,263,291,145,237,2,438,0,0,0,0,0,0,0,0,0,0,0,0],"split_type":[0,0,0,0,0,0,0,0,0,0,0,0,0,0,0,0,0,0,0,0,0,0,0,0,0],"sum_hessian":[2.66E2,5.9E1,2.07E2,5E1,9E0,1.33E2,7.4E1,2.4E1,2.6E1,6.3E1,7E1,5.8E1,1.6E1,1.7E1,7E0,1.2E1,1.4E1,5.8E1,5E0,3.4E1,3.6E1,3.1E1,2.7E1,5E0,1.1E1],"tree_param":{"num_deleted":"0","num_feature":"455","num_nodes":"25","size_leaf_vector":"1"}},{"base_weights":[-1.6559917E-3,-1.1825644E-1,2.9015075E-2,-2.2223113E-2,-7.901303E-2,-4.797193E-2,5.3219333E-2,-1.3600723E-1,-2.2481551E-2,-1.4884181E-1,9.66768E-4,2.1337831E-2,8.343433E-2,-1.3899439E-2,-4.3842164E-3,-2.7208235E-3,2.7611393E-3,-2.1415057E-3,-1.3254509E-2,-4.0157014E-3,2.8868455E-3,-1.6528663E-3,2.7802773E-3,9.906527E-4,6.3341605E-3],"categories":[],"categories_nodes":[],"categories_segments":[],"categories_sizes":[],"default_left":[0,0,0,0,0,0,0,0,0,0,0,0,0,0,0,0,0,0,0,0,0,0,0,0,0],"id":32,"left_children":[1,3,5,-1,7,9,11,13,15,17,19,21,23,-1,-1,-1,-1,-1,-1,-1,-1,-1,-1,-1,-1],"loss_changes":[9.617239E-1,4.9555564E-1,4.0201318E-1,0E0,1.58205E-1,2.569827E-1,1.5345716E-1,1.1664361E-1,4.803004E-2,1.2285471E-1,1.2488012E-1,1.02768995E-1,1.1946607E-1,0E0,0E0,0E0,0E0,0E0,0E0,0E0,0E0,0E0,0E0,0E0,0E0],"parents":[2147483647,0,0,1,1,2,2,4,4,5,5,6,6,7,7,8,8,9,9,10,10,11,11,12,12],"right_children":[2,4,6,-1,8,10,12,14,16,18,20,22,24,-1,-1,-1,-1,-1,-1,-1,-1,-1,-1,-1,-1],"split_conditions":[1E0,-1.3657653E0,4.828314E0,-2.2223113E-2,-3.0810374E-1,-6.2790287E-1,3E0,-6.8656616E-3,5.285496E-1,2.4289708E-1,-2.6571688E-1,-2.8814903E-1,-4.8595154E-1,-1.3899439E-2,-4.3842164E-3,-2.7208235E-3,2.7611393E-3,-2.1415057E-3,-1.3254509E-2,-4.0157014E-3,2.8868455E-3,-1.6528663E-3,2.7802773E-3,9.906527E-4,6.3341605E-3],"split_indices":[0,417,2,0,257,121,0,368,448,272,440,450,290,0,0,0,0,0,0,0,0,0,0,0,0],"split_type":[0,0,0,0,0,0,0,0,0,0,0,0,0,0,0,0,0,0,0,0,0,0,0,0,0],"sum_hessian":[2.65E2,5.4E1,2.11E2,5E0,4.9E1,5E1,1.61E2,2.3E1,2.6E1,1.5E1,3.5E1,8E1,8.1E1,7E0,1.6E1,2E1,6E0,7E0,8E0,1.4E1,2.1E1,2.7E1,5.3E1,2.1E1,6E1],"tree_param":{"num_deleted":"0","num_feature":"455","num_nodes":"25","size_leaf_vector":"1"}},{"base_weights":[-2.0903947E-3,-6.6787526E-2,4.7437485E-2,-1.598859E-2,-5.0758943E-2,2.1718632E-2,8.9373484E-2,-7.126977E-2,5.971408E-2,-6.6042826E-2,3.4783654E-2,6.2716566E-2,1.6038473E-1,-1.097519E-2,-2.9969562E-3,6.735768E-3,3.5175367E-4,-6.774277E-3,-5.1168323E-4,-1.5575695E-3,3.1281968E-3,4.321064E-4,4.98507E-3,4.631755E-3,1.1366764E-2],"categories":[],"categories_nodes":[],"categories_segments":[],"categories_sizes":[],"default_left":[0,0,0,0,0,0,0,0,0,0,0,0,0,0,0,0,0,0,0,0,0,0,0,0,0],"id":33,"left_children":[1,3,5,-1,7,9,11,13,15,17,19,21,23,-1,-1,-1,-1,-1,-1,-1,-1,-1,-1,-1,-1],"loss_changes":[8.4266186E-1,3.3783132E-1,1.5682116E-1,0E0,2.532281E-1,1.13521926E-1,8.5887164E-2,2.0072666E-1,4.9620613E-2,3.311247E-2,9.124907E-2,4.855503E-2,4.597187E-3,0E0,0E0,0E0,0E0,0E0,0E0,0E0,0E0,0E0,0E0,0E0,0E0],"parents":[2147483647,0,0,1,1,2,2,4,4,5,5,6,6,7,7,8,8,9,9,10,10,11,11,12,12],"right_children":[2,4,6,-1,8,10,12,14,16,18,20,22,24,-1,-1,-1,-1,-1,-1,-1,-1,-1,-1,-1,-1],"split_conditions":[2E0,-1.7726921E0,4E0,-1.598859E-2,6.3332796E0,-1.0586499E0,8.0561376E-1,-1.044408E0,-3.1532276E-1,3.687117E-1,-8.7255967E-1,-5.871448E-1,-8.0052197E-1,-1.097519E-2,-2.9969562E-3,6.735768E-3,3.5175367E-4,-6.774277E-3,-5.1168323E-4,-1.5575695E-3,3.1281968E-3,4.321064E-4,4.98507E-3,4.631755E-3,1.1366764E-2],"split_indices":[0,182,0,0,2,274,183,369,256,99,386,278,297,0,0,0,0,0,0,0,0,0,0,0,0],"split_type":[0,0,0,0,0,0,0,0,0,0,0,0,0,0,0,0,0,0,0,0,0,0,0,0,0],"sum_hessian":[2.59E2,1.12E2,1.47E2,6E0,1.06E2,9.3E1,5.4E1,9E1,1.6E1,1.1E1,8.2E1,4.2E1,1.2E1,1.2E1,7.8E1,7E0,9E0,5E0,6E0,1.8E1,6.4E1,1.2E1,3E1,5E0,7E0],"tree_param":{"num_deleted":"0","num_feature":"455","num_nodes":"25","size_leaf_vector":"1"}},{"base_weights":[9.0957794E-4,-1.2064249E-1,2.3825893E-2,-6.5070756E-2,-2.32709E-2,-6.406786E-2,4.6744842E-2,-1.13812424E-1,-9.822011E-3,-1.04044996E-1,1.4121254E-2,2.6064511E-2,9.4799526E-2,-8.838386E-3,-1.604687E-3,-4.557301E-3,1.3409795E-3,-3.6328938E-4,-9.287791E-3,-1.8308559E-3,3.3559513E-3,-3.034266E-3,2.505425E-3,3.8217413E-3,8.478389E-3],"categories":[],"categories_nodes":[],"categories_segments":[],"categories_sizes":[],"default_left":[0,0,0,0,0,0,0,0,0,0,0,0,0,0,0,0,0,0,0,0,0,0,0,0,0],"id":34,"left_children":[1,3,5,7,-1,9,11,13,15,17,19,21,23,-1,-1,-1,-1,-1,-1,-1,-1,-1,-1,-1,-1],"loss_changes":[7.550552E-1,5.8803594E-1,4.6528026E-1,1.0009505E-1,0E0,1.5297575E-1,1.759274E-1,5.0445557E-2,4.594732E-2,1.5726635E-1,3.7006296E-2,1.6056263E-1,6.0112208E-2,0E0,0E0,0E0,0E0,0E0,0E0,0E0,0E0,0E0,0E0,0E0,0E0],"parents":[2147483647,0,0,1,1,2,2,3,3,5,5,6,6,7,7,8,8,9,9,10,10,11,11,12,12],"right_children":[2,4,6,8,-1,10,12,14,16,18,20,22,24,-1,-1,-1,-1,-1,-1,-1,-1,-1,-1,-1,-1],"split_conditions":[4.1431346E0,6.0004205E-1,1E0,3E0,-2.32709E-2,2.154263E-1,4E0,5.2361304E-1,-6.153549E-1,-3.5116753E-1,-3.5272563E-1,-9.33219E-1,5.460314E-1,-8.838386E-3,-1.604687E-3,-4.557301E-3,1.3409795E-3,-3.6328938E-4,-9.287791E-3,-1.8308559E-3,3.3559513E-3,-3.034266E-3,2.505425E-3,3.8217413E-3,8.478389E-3],"split_indices":[2,197,0,0,0,357,0,167,321,418,323,386,420,0,0,0,0,0,0,0,0,0,0,0,0],"split_type":[0,0,0,0,0,0,0,0,0,0,0,0,0,0,0,0,0,0,0,0,0,0,0,0,0],"sum_hessian":[2.67E2,4.1E1,2.26E2,3.6E1,5E0,4.6E1,1.8E2,1.8E1,1.8E1,3E1,1.6E1,1.28E2,5.2E1,1.2E1,6E0,5E0,1.3E1,1.1E1,1.9E1,8E0,8E0,2.1E1,1.07E2,3.4E1,1.8E1],"tree_param":{"num_deleted":"0","num_feature":"455","num_nodes":"25","size_leaf_vector":"1"}},{"base_weights":[-9.085267E-3,-1.0977102E-1,1.9416012E-2,-6.633092E-2,-1.6762165E-2,-5.9802473E-2,4.288376E-2,-3.0874543E-2,-1.4802861E-1,-1.6765624E-2,-1.4109066E-1,-3.179298E-2,5.362611E-2,-3.8165192E-3,1.0796508E-3,-3.037029E-3,-1.145387E-2,-3.906779E-3,1.2702877E-3,-2.5247482E-3,-1.3774944E-2,2.2288642E-3,-5.3813886E-3,-1.5844896E-3,3.964283E-3],"categories":[],"categories_nodes":[],"categories_segments":[],"categories_sizes":[],"default_left":[0,0,0,0,0,0,0,0,0,0,0,0,0,0,0,0,0,0,0,0,0,0,0,0,0],"id":35,"left_children":[1,3,5,7,-1,9,11,13,15,17,19,21,23,-1,-1,-1,-1,-1,-1,-1,-1,-1,-1,-1,-1],"loss_changes":[7.417685E-1,3.828786E-1,3.806632E-1,1.2990116E-1,0E0,1.5969327E-1,1.2935585E-1,5.9877444E-2,3.913793E-2,6.328429E-2,1.2086597E-1,9.048398E-2,1.4094439E-1,0E0,0E0,0E0,0E0,0E0,0E0,0E0,0E0,0E0,0E0,0E0,0E0],"parents":[2147483647,0,0,1,1,2,2,3,3,5,5,6,6,7,7,8,8,9,9,10,10,11,11,12,12],"right_children":[2,4,6,8,-1,10,12,14,16,18,20,22,24,-1,-1,-1,-1,-1,-1,-1,-1,-1,-1,-1,-1],"split_conditions":[1E0,1.1063701E0,4.762174E0,7.2229743E-1,-1.6762165E-2,2.9228845E-1,-1.0304307E0,6.016157E0,-4.545674E-1,3E0,-3.886087E-1,5.428692E-2,-1.3106548E0,-3.8165192E-3,1.0796508E-3,-3.037029E-3,-1.145387E-2,-3.906779E-3,1.2702877E-3,-2.5247482E-3,-1.3774944E-2,2.2288642E-3,-5.3813886E-3,-1.5844896E-3,3.964283E-3],"split_indices":[0,155,2,278,0,324,95,2,299,0,226,90,306,0,0,0,0,0,0,0,0,0,0,0,0],"split_type":[0,0,0,0,0,0,0,0,0,0,0,0,0,0,0,0,0,0,0,0,0,0,0,0,0],"sum_hessian":[2.55E2,5.5E1,2E2,4.6E1,9E0,4.5E1,1.55E2,3.4E1,1.2E1,3.1E1,1.4E1,1.9E1,1.36E2,2E1,1.4E1,5E0,7E0,1.3E1,1.8E1,8E0,6E0,9E0,1E1,1.8E1,1.18E2],"tree_param":{"num_deleted":"0","num_feature":"455","num_nodes":"25","size_leaf_vector":"1"}},{"base_weights":[3.3658375E-3,-9.25594E-2,2.8133182E-2,-1.9973703E-1,-3.0851232E-2,5.1368754E-3,8.2251124E-2,-8.749514E-2,-1.9931749E-2,-1.0155356E-1,4.1537834E-3,-1.0239266E-1,1.9946551E-2,5.3616773E-2,1.3558987E-1,-1.2949461E-3,-7.3976987E-3,-7.869451E-3,-2.5760566E-3,-2.7945568E-3,2.8539428E-3,-1.1388446E-2,-2.3742265E-3,-1.8635067E-3,2.454407E-3,2.4432753E-4,4.488879E-3,9.616799E-3,2.636549E-3],"categories":[],"categories_nodes":[],"categories_segments":[],"categories_sizes":[],"default_left":[0,0,0,0,0,0,0,0,0,0,0,0,0,0,0,0,0,0,0,0,0,0,0,0,0,0,0,0,0],"id":36,"left_children":[1,3,5,7,9,11,13,15,-1,17,19,21,23,25,27,-1,-1,-1,-1,-1,-1,-1,-1,-1,-1,-1,-1,-1,-1],"loss_changes":[6.134162E-1,3.382037E-1,2.542801E-1,2.2435004E-1,8.994135E-2,2.3658648E-1,7.862672E-2,2.5353618E-2,0E0,9.562053E-3,6.1690006E-2,8.382711E-2,1.4152098E-1,4.455106E-2,3.1169504E-2,0E0,0E0,0E0,0E0,0E0,0E0,0E0,0E0,0E0,0E0,0E0,0E0,0E0,0E0],"parents":[2147483647,0,0,1,1,2,2,3,3,4,4,5,5,6,6,7,7,9,9,10,10,11,11,12,12,13,13,14,14],"right_children":[2,4,6,8,10,12,14,16,-1,18,20,22,24,26,28,-1,-1,-1,-1,-1,-1,-1,-1,-1,-1,-1,-1,-1,-1],"split_conditions":[1E0,-4.7987202E-1,4E0,4.7819135E-1,-2.8216904E-1,3.8286414E0,5.1808953E-1,-8.3267844E-1,-1.9931749E-2,1.649652E-1,-1.5999894E-1,-7.055845E-1,-6.085033E-1,5.236442E0,4.3735087E-1,-1.2949461E-3,-7.3976987E-3,-7.869451E-3,-2.5760566E-3,-2.7945568E-3,2.8539428E-3,-1.1388446E-2,-2.3742265E-3,-1.8635067E-3,2.454407E-3,2.4432753E-4,4.488879E-3,9.616799E-3,2.636549E-3],"split_indices":[0,182,0,431,285,2,115,255,0,82,187,436,386,2,185,0,0,0,0,0,0,0,0,0,0,0,0,0,0],"split_type":[0,0,0,0,0,0,0,0,0,0,0,0,0,0,0,0,0,0,0,0,0,0,0,0,0,0,0,0,0],"sum_hessian":[2.54E2,5.1E1,2.03E2,1.7E1,3.4E1,1.44E2,5.9E1,1.1E1,6E0,1E1,2.4E1,1.6E1,1.28E2,4.1E1,1.8E1,5E0,6E0,5E0,5E0,1.1E1,1.3E1,5E0,1.1E1,3.7E1,9.1E1,1.3E1,2.8E1,1.3E1,5E0],"tree_param":{"num_deleted":"0","num_feature":"455","num_nodes":"29","size_leaf_vector":"1"}},{"base_weights":[1.9706732E-3,-9.171448E-2,2.6391238E-2,-5.5838857E-2,-1.7042374E-2,-2.4352264E-2,4.8424352E-2,-1.13666564E-1,-6.4143115E-3,-7.536374E-2,1.9510202E-2,3.472373E-3,6.924098E-2,-8.634382E-3,-1.4862191E-3,-3.5447262E-3,1.7644818E-3,-6.345652E-3,1.1439197E-3,-3.6220934E-4,6.6260397E-3,2.2158336E-3,-4.0836195E-3,1.8521408E-3,5.8561624E-3],"categories":[],"categories_nodes":[],"categories_segments":[],"categories_sizes":[],"default_left":[0,0,0,0,0,0,0,0,0,0,0,0,0,0,0,0,0,0,0,0,0,0,0,0,0],"id":37,"left_children":[1,3,5,7,-1,9,11,13,15,17,19,21,23,-1,-1,-1,-1,-1,-1,-1,-1,-1,-1,-1,-1],"loss_changes":[5.973926E-1,3.408674E-1,2.337922E-1,1.35731E-1,0E0,1.4614004E-1,1.352027E-1,5.201131E-2,5.6298584E-2,9.0143934E-2,8.4955305E-2,1.1990803E-1,1.01715446E-1,0E0,0E0,0E0,0E0,0E0,0E0,0E0,0E0,0E0,0E0,0E0,0E0],"parents":[2147483647,0,0,1,1,2,2,3,3,5,5,6,6,7,7,8,8,9,9,10,10,11,11,12,12],"right_children":[2,4,6,8,-1,10,12,14,16,18,20,22,24,-1,-1,-1,-1,-1,-1,-1,-1,-1,-1,-1,-1],"split_conditions":[1E0,1.1063701E0,5.26269E0,-9.245533E-2,-1.7042374E-2,3E0,-5.332844E-1,1.4522403E-1,-3.5295516E-1,5.264345E-1,6.8005323E-1,6.647671E-1,-1.238994E-1,-8.634382E-3,-1.4862191E-3,-3.5447262E-3,1.7644818E-3,-6.345652E-3,1.1439197E-3,-3.6220934E-4,6.6260397E-3,2.2158336E-3,-4.0836195E-3,1.8521408E-3,5.8561624E-3],"split_indices":[0,155,2,427,0,0,272,114,323,436,118,238,269,0,0,0,0,0,0,0,0,0,0,0,0],"split_type":[0,0,0,0,0,0,0,0,0,0,0,0,0,0,0,0,0,0,0,0,0,0,0,0,0],"sum_hessian":[2.57E2,5.2E1,2.05E2,4.6E1,6E0,6.2E1,1.43E2,2E1,2.6E1,2.8E1,3.4E1,4.6E1,9.7E1,1.4E1,6E0,1E1,1.6E1,2.1E1,7E0,2.8E1,6E0,3.2E1,1.4E1,4.3E1,5.4E1],"tree_param":{"num_deleted":"0","num_feature":"455","num_nodes":"25","size_leaf_vector":"1"}},{"base_weights":[-1.503196E-3,-9.980665E-2,2.5362128E-2,-6.1606057E-2,-1.64801E-2,-1.0793547E-2,5.8509223E-2,-1.1833648E-1,-1.0408048E-2,2.659542E-3,-8.347788E-3,4.073827E-2,1.0717417E-1,-9.041144E-3,-9.5799204E-4,1.7516639E-3,-3.420592E-3,-9.392502E-4,4.483965E-3,4.649019E-3,6.709351E-4,7.6394156E-3,2.0462133E-3],"categories":[],"categories_nodes":[],"categories_segments":[],"categories_sizes":[],"default_left":[0,0,0,0,0,0,0,0,0,0,0,0,0,0,0,0,0,0,0,0,0,0,0],"id":38,"left_children":[1,3,5,7,-1,9,11,13,15,17,-1,19,21,-1,-1,-1,-1,-1,-1,-1,-1,-1,-1],"loss_changes":[7.260431E-1,3.6026692E-1,2.6012945E-1,1.4566539E-1,0E0,1.8202455E-1,8.8992804E-2,7.466635E-2,5.6849573E-2,1.303728E-1,0E0,9.1667175E-2,3.401321E-2,0E0,0E0,0E0,0E0,0E0,0E0,0E0,0E0,0E0,0E0],"parents":[2147483647,0,0,1,1,2,2,3,3,5,5,6,6,7,7,8,8,9,9,11,11,12,12],"right_children":[2,4,6,8,-1,10,12,14,16,18,-1,20,22,-1,-1,-1,-1,-1,-1,-1,-1,-1,-1],"split_conditions":[1E0,1.1063701E0,3E0,-1.3085128E-1,-1.64801E-2,1.4538618E0,6.063785E0,4.6882161E-1,9.435267E-2,6.352629E0,-8.347788E-3,-1.0624069E-1,1.7259744E-1,-9.041144E-3,-9.5799204E-4,1.7516639E-3,-3.420592E-3,-9.392502E-4,4.483965E-3,4.649019E-3,6.709351E-4,7.6394156E-3,2.0462133E-3],"split_indices":[0,155,0,215,0,447,2,286,173,2,0,76,389,0,0,0,0,0,0,0,0,0,0],"split_type":[0,0,0,0,0,0,0,0,0,0,0,0,0,0,0,0,0,0,0,0,0,0,0],"sum_hessian":[2.71E2,5.7E1,2.14E2,4.9E1,8E0,1.03E2,1.11E2,2.2E1,2.7E1,9.5E1,8E0,8.4E1,2.7E1,1.6E1,6E0,1.5E1,1.2E1,7.7E1,1.8E1,3.6E1,4.8E1,2E1,7E0],"tree_param":{"num_deleted":"0","num_feature":"455","num_nodes":"23","size_leaf_vector":"1"}},{"base_weights":[5.809955E-4,-1.0067831E-1,2.4049463E-2,-1.6809098E-2,-5.939157E-2,-2.5917435E-2,4.5800436E-2,-1.2505421E-1,-1.6803708E-2,7.214825E-3,-1.2616302E-1,2.9012125E-2,8.6452484E-2,-9.607477E-3,-1.7522234E-3,-4.8817177E-3,1.2230222E-3,2.0573512E-3,-2.6906054E-3,-1.2194334E-2,-1.8937266E-3,6.8263925E-4,4.866232E-3,3.7460643E-4,6.077381E-3],"categories":[],"categories_nodes":[],"categories_segments":[],"categories_sizes":[],"default_left":[0,0,0,0,0,0,0,0,0,0,0,0,0,0,0,0,0,0,0,0,0,0,0,0,0],"id":39,"left_children":[1,3,5,-1,7,9,11,13,15,17,19,21,23,-1,-1,-1,-1,-1,-1,-1,-1,-1,-1,-1,-1],"loss_changes":[6.440943E-1,3.4462607E-1,2.4147636E-1,0E0,1.1884023E-1,2.2767319E-1,1.0008544E-1,4.77933E-2,7.29388E-2,7.777582E-2,1.1112532E-1,1.0104082E-1,5.1098645E-2,0E0,0E0,0E0,0E0,0E0,0E0,0E0,0E0,0E0,0E0,0E0,0E0],"parents":[2147483647,0,0,1,1,2,2,4,4,5,5,6,6,7,7,8,8,9,9,10,10,11,11,12,12],"right_children":[2,4,6,-1,8,10,12,14,16,18,20,22,24,-1,-1,-1,-1,-1,-1,-1,-1,-1,-1,-1,-1],"split_conditions":[1E0,-8.358465E-1,5.26269E0,-1.6809098E-2,-5.8873385E-1,7.784288E-1,4E0,-6.0735002E-2,-8.498254E-1,5.7957125E-1,-7.392074E-2,6.35437E0,-1.1552582E0,-9.607477E-3,-1.7522234E-3,-4.8817177E-3,1.2230222E-3,2.0573512E-3,-2.6906054E-3,-1.2194334E-2,-1.8937266E-3,6.8263925E-4,4.866232E-3,3.7460643E-4,6.077381E-3],"split_indices":[0,368,2,0,285,324,0,145,378,331,116,2,301,0,0,0,0,0,0,0,0,0,0,0,0],"split_type":[0,0,0,0,0,0,0,0,0,0,0,0,0,0,0,0,0,0,0,0,0,0,0,0,0],"sum_hessian":[2.67E2,4.9E1,2.18E2,7E0,4.2E1,6.6E1,1.52E2,1.5E1,2.7E1,5.1E1,1.5E1,1.1E2,4.2E1,1E1,5E0,9E0,1.8E1,3.4E1,1.7E1,7E0,8E0,8.4E1,2.6E1,7E0,3.5E1],"tree_param":{"num_deleted":"0","num_feature":"455","num_nodes":"25","size_leaf_vector":"1"}},{"base_weights":[-2.0546147E-3,-3.7997704E-2,4.9192704E-2,-1.3554722E-2,-2.6522223E-2,1.0350566E-2,7.275714E-2,-1.4747162E-1,-1.23205455E-2,2.5759883E-2,-2.9240411E-3,1.0095404E-1,3.6963128E-2,-2.7373317E-3,-1.5923157E-2,-3.3639527E-3,8.4041466E-4,2.8840192E-3,-5.7159393E-4,7.089888E-3,2.9806336E-3,6.256248E-3,7.0735347E-4],"categories":[],"categories_nodes":[],"categories_segments":[],"categories_sizes":[],"default_left":[0,0,0,0,0,0,0,0,0,0,0,0,0,0,0,0,0,0,0,0,0,0,0],"id":40,"left_children":[1,3,5,-1,7,9,11,13,15,17,-1,19,21,-1,-1,-1,-1,-1,-1,-1,-1,-1,-1],"loss_changes":[5.047589E-1,3.3519828E-1,1.01921976E-1,0E0,2.6088953E-1,4.3481156E-2,6.318647E-2,1.6793716E-1,1.628091E-1,3.0039953E-2,0E0,2.1795303E-2,5.5150952E-2,0E0,0E0,0E0,0E0,0E0,0E0,0E0,0E0,0E0,0E0],"parents":[2147483647,0,0,1,1,2,2,4,4,5,5,6,6,7,7,8,8,9,9,11,11,12,12],"right_children":[2,4,6,-1,8,10,12,14,16,18,-1,20,22,-1,-1,-1,-1,-1,-1,-1,-1,-1,-1],"split_conditions":[3E0,-1.5773655E0,-2.59934E-1,-1.3554722E-2,-1.3820266E0,7.695399E-1,1.5331425E-1,1.726623E-1,5.4510384E0,1.8840505E-1,-2.9240411E-3,4.3916923E-1,-5.683526E-1,-2.7373317E-3,-1.5923157E-2,-3.3639527E-3,8.4041466E-4,2.8840192E-3,-5.7159393E-4,7.089888E-3,2.9806336E-3,6.256248E-3,7.0735347E-4],"split_indices":[0,368,290,0,128,237,227,96,2,74,0,432,439,0,0,0,0,0,0,0,0,0,0],"split_type":[0,0,0,0,0,0,0,0,0,0,0,0,0,0,0,0,0,0,0,0,0,0,0],"sum_hessian":[2.7E2,1.59E2,1.11E2,7E0,1.52E2,4.3E1,6.8E1,1.4E1,1.38E2,3.5E1,8E0,3.6E1,3.2E1,9E0,5E0,5.1E1,8.7E1,2.1E1,1.4E1,2.5E1,1.1E1,7E0,2.5E1],"tree_param":{"num_deleted":"0","num_feature":"455","num_nodes":"23","size_leaf_vector":"1"}},{"base_weights":[-8.6328145E-3,-5.7949588E-2,2.8963039E-2,-3.6898848E-2,-2.0304076E-1,3.7320476E-2,-4.0812284E-2,-1.4432053E-1,-1.6529022E-2,-1.8946778E-2,-2.3725033E-3,1.9463041E-3,5.43817E-2,-6.3736714E-2,6.0884404E-4,-1.5095352E-2,-2.9891136E-3,4.4113123E-3,-1.7975509E-3,-2.0482792E-3,1.9397668E-3,3.8006422E-3,-1.3389626E-3,-4.6707303E-3,-1.8850461E-3],"categories":[],"categories_nodes":[],"categories_segments":[],"categories_sizes":[],"default_left":[0,0,0,0,0,0,0,0,0,0,0,0,0,0,0,0,0,0,0,0,0,0,0,0,0],"id":41,"left_children":[1,3,5,7,9,11,13,15,17,-1,-1,19,21,23,-1,-1,-1,-1,-1,-1,-1,-1,-1,-1,-1],"loss_changes":[4.891326E-1,3.3320358E-1,9.0517715E-2,2.1842146E-1,2.330848E-1,8.126439E-2,2.11533E-2,1.37126E-1,1.1083235E-1,0E0,0E0,5.263962E-2,6.537977E-2,5.8041885E-4,0E0,0E0,0E0,0E0,0E0,0E0,0E0,0E0,0E0,0E0,0E0],"parents":[2147483647,0,0,1,1,2,2,3,3,4,4,5,5,6,6,7,7,8,8,11,11,12,12,13,13],"right_children":[2,4,6,8,10,12,14,16,18,-1,-1,20,22,24,-1,-1,-1,-1,-1,-1,-1,-1,-1,-1,-1],"split_conditions":[2E0,1.2372231E0,1.2675498E0,-1.2847551E0,-1.6372949E-1,-5.1942E-1,1.6409117E-1,-4.5425886E-1,-1.2105147E0,-1.8946778E-2,-2.3725033E-3,1.484009E-1,1.264323E0,3.388336E-1,6.0884404E-4,-1.5095352E-2,-2.9891136E-3,4.4113123E-3,-1.7975509E-3,-2.0482792E-3,1.9397668E-3,3.8006422E-3,-1.3389626E-3,-4.6707303E-3,-1.8850461E-3],"split_indices":[0,293,74,218,343,122,197,367,397,0,0,403,245,127,0,0,0,0,0,0,0,0,0,0,0],"split_type":[0,0,0,0,0,0,0,0,0,0,0,0,0,0,0,0,0,0,0,0,0,0,0,0,0],"sum_hessian":[2.6E2,1.12E2,1.48E2,1E2,1.2E1,1.33E2,1.5E1,1.4E1,8.6E1,6E0,6E0,4.4E1,8.9E1,1E1,5E0,5E0,9E0,1E1,7.6E1,2E1,2.4E1,8E1,9E0,5E0,5E0],"tree_param":{"num_deleted":"0","num_feature":"455","num_nodes":"25","size_leaf_vector":"1"}},{"base_weights":[-5.5057947E-3,-5.177716E-2,3.0067276E-2,-1.6178595E-2,-3.7857357E-2,1.51670715E-2,6.714037E-2,-1.6751128E-1,-2.2609117E-2,1.2805898E-4,6.989884E-2,5.8590816E-3,8.6622015E-2,-1.486478E-2,-2.3649521E-3,-2.7398984E-3,2.5531503E-3,-1.1703882E-3,2.6882822E-3,-1.3162171E-3,6.0725254E-3,-1.4744264E-3,2.3379277E-3,1.650896E-3,6.1615366E-3],"categories":[],"categories_nodes":[],"categories_segments":[],"categories_sizes":[],"default_left":[0,0,0,0,0,0,0,0,0,0,0,0,0,0,0,0,0,0,0,0,0,0,0,0,0],"id":42,"left_children":[1,3,5,-1,7,9,11,13,15,17,19,21,23,-1,-1,-1,-1,-1,-1,-1,-1,-1,-1,-1,-1],"loss_changes":[4.6235165E-1,3.4956777E-1,8.5794404E-2,0E0,2.2373378E-1,9.546305E-2,5.27087E-2,1.0380265E-1,1.6463853E-1,8.3328016E-2,7.6324716E-2,1.5012838E-2,2.664429E-2,0E0,0E0,0E0,0E0,0E0,0E0,0E0,0E0,0E0,0E0,0E0,0E0],"parents":[2147483647,0,0,1,1,2,2,4,4,5,5,6,6,7,7,8,8,9,9,10,10,11,11,12,12],"right_children":[2,4,6,-1,8,10,12,14,16,18,20,22,24,-1,-1,-1,-1,-1,-1,-1,-1,-1,-1,-1,-1],"split_conditions":[2E0,-1.5773655E0,6.056784E0,-1.6178595E-2,-1.3820266E0,9.1418064E-1,-7.489997E-1,5.051139E-1,6.0185933E0,4E0,-2.1693605E-1,-5.7408655E-1,-6.5422195E-1,-1.486478E-2,-2.3649521E-3,-2.7398984E-3,2.5531503E-3,-1.1703882E-3,2.6882822E-3,-1.3162171E-3,6.0725254E-3,-1.4744264E-3,2.3379277E-3,1.650896E-3,6.1615366E-3],"split_indices":[0,368,2,0,128,429,296,75,2,0,367,212,337,0,0,0,0,0,0,0,0,0,0,0,0],"split_type":[0,0,0,0,0,0,0,0,0,0,0,0,0,0,0,0,0,0,0,0,0,0,0,0,0],"sum_hessian":[2.77E2,1.2E2,1.57E2,5E0,1.15E2,1.14E2,4.3E1,1E1,1.05E2,9.1E1,2.3E1,1.1E1,3.2E1,5E0,5E0,7.8E1,2.7E1,6.4E1,2.7E1,6E0,1.7E1,6E0,5E0,8E0,2.4E1],"tree_param":{"num_deleted":"0","num_feature":"455","num_nodes":"25","size_leaf_vector":"1"}},{"base_weights":[-2.0572003E-3,-4.9379215E-2,3.3544272E-2,-3.3862468E-2,-1.177335E-2,6.7717634E-2,1.781006E-2,-4.7985744E-2,6.912367E-2,1.01502314E-1,2.9697517E-2,-3.957929E-2,3.19011E-2,-4.96135E-3,5.1979383E-4,6.6445004E-3,1.0863713E-4,7.3709944E-3,1.8457853E-3,1.2654686E-4,3.7151112E-3,2.2238302E-3,-4.0897946E-3,1.0498046E-4,3.3646354E-3],"categories":[],"categories_nodes":[],"categories_segments":[],"categories_sizes":[],"default_left":[0,0,0,0,0,0,0,0,0,0,0,0,0,0,0,0,0,0,0,0,0,0,0,0,0],"id":43,"left_children":[1,3,5,7,-1,9,11,13,15,17,19,21,23,-1,-1,-1,-1,-1,-1,-1,-1,-1,-1,-1,-1],"loss_changes":[4.2786562E-1,2.3507059E-1,7.5553074E-2,1.5353855E-1,0E0,5.1773667E-2,8.501015E-2,1.7836492E-1,3.6017634E-2,2.71741E-2,2.1073038E-2,5.105883E-2,6.0306244E-2,0E0,0E0,0E0,0E0,0E0,0E0,0E0,0E0,0E0,0E0,0E0,0E0],"parents":[2147483647,0,0,1,1,2,2,3,3,5,5,6,6,7,7,8,8,9,9,10,10,11,11,12,12],"right_children":[2,4,6,8,-1,10,12,14,16,18,20,22,24,-1,-1,-1,-1,-1,-1,-1,-1,-1,-1,-1,-1],"split_conditions":[2E0,1.4617139E0,-4.6719906E-1,1.2431489E0,-1.177335E-2,9.792959E-2,-7.498421E-1,3.4534928E-1,-4.3835282E-2,1.0854346E0,3.9099258E-1,-8.744049E-1,-1.4670171E-1,-4.96135E-3,5.1979383E-4,6.6445004E-3,1.0863713E-4,7.3709944E-3,1.8457853E-3,1.2654686E-4,3.7151112E-3,2.2238302E-3,-4.0897946E-3,1.0498046E-4,3.3646354E-3],"split_indices":[0,298,257,423,0,365,121,127,94,184,287,137,272,0,0,0,0,0,0,0,0,0,0,0,0],"split_type":[0,0,0,0,0,0,0,0,0,0,0,0,0,0,0,0,0,0,0,0,0,0,0,0,0],"sum_hessian":[2.5E2,1.07E2,1.43E2,9.9E1,8E0,4.3E1,1E2,8.8E1,1.1E1,2.1E1,2.2E1,1.9E1,8.1E1,5.4E1,3.4E1,6E0,5E0,1.5E1,6E0,1.3E1,9E0,5E0,1.4E1,3.7E1,4.4E1],"tree_param":{"num_deleted":"0","num_feature":"455","num_nodes":"25","size_leaf_vector":"1"}},{"base_weights":[-1.0942979E-3,-3.1407125E-2,4.2770583E-2,-1.3001308E-1,-1.0644031E-2,9.820395E-4,6.0960922E-2,-6.332916E-2,-1.8718248E-2,-9.9564075E-2,1.1921066E-3,5.524826E-2,-2.731496E-2,8.144978E-2,1.3717844E-2,-4.275627E-4,-5.541241E-3,-5.9071067E-4,-1.0029457E-2,7.005463E-4,-5.3103403E-3,8.37728E-4,4.653693E-3,2.4117582E-5,-4.1382434E-3,6.3599134E-3,1.9666809E-3,-7.907239E-4,3.5632867E-3],"categories":[],"categories_nodes":[],"categories_segments":[],"categories_sizes":[],"default_left":[0,0,0,0,0,0,0,0,0,0,0,0,0,0,0,0,0,0,0,0,0,0,0,0,0,0,0,0,0],"id":44,"left_children":[1,3,5,7,9,11,13,15,-1,17,19,21,23,25,27,-1,-1,-1,-1,-1,-1,-1,-1,-1,-1,-1,-1,-1,-1],"loss_changes":[3.643565E-1,3.2890537E-1,8.50168E-2,3.002286E-1,1.4337328E-1,5.829877E-2,7.3266E-2,3.620337E-2,0E0,9.37393E-2,1.1679085E-1,9.810135E-3,2.8919682E-2,5.7572126E-2,3.350304E-2,0E0,0E0,0E0,0E0,0E0,0E0,0E0,0E0,0E0,0E0,0E0,0E0,0E0,0E0],"parents":[2147483647,0,0,1,1,2,2,3,3,4,4,5,5,6,6,7,7,9,9,10,10,11,11,12,12,13,13,14,14],"right_children":[2,4,6,8,10,12,14,16,-1,18,20,22,24,26,28,-1,-1,-1,-1,-1,-1,-1,-1,-1,-1,-1,-1,-1,-1],"split_conditions":[3E0,4.276666E0,-6.717001E-1,7.4439514E-1,-1.3820266E0,-6.650347E-1,3.5893202E-1,-2.6742172E-1,-1.8718248E-2,-1.9980244E-1,1.5235393E0,1.0008845E-1,3.7137347E-1,2.915739E-1,3.0521387E-1,-4.275627E-4,-5.541241E-3,-5.9071067E-4,-1.0029457E-2,7.005463E-4,-5.3103403E-3,8.37728E-4,4.653693E-3,2.4117582E-5,-4.1382434E-3,6.3599134E-3,1.9666809E-3,-7.907239E-4,3.5632867E-3],"split_indices":[0,2,200,117,128,330,277,425,0,216,73,246,361,368,162,0,0,0,0,0,0,0,0,0,0,0,0,0,0],"split_type":[0,0,0,0,0,0,0,0,0,0,0,0,0,0,0,0,0,0,0,0,0,0,0,0,0,0,0,0,0],"sum_hessian":[2.7E2,1.6E2,1.1E2,2.6E1,1.34E2,3.4E1,7.6E1,2.1E1,5E0,1.4E1,1.2E2,1.1E1,2.3E1,5.2E1,2.4E1,8E0,1.3E1,7E0,7E0,1.09E2,1.1E1,5E0,6E0,1.5E1,8E0,3.3E1,1.9E1,1.6E1,8E0],"tree_param":{"num_deleted":"0","num_feature":"455","num_nodes":"29","size_leaf_vector":"1"}},{"base_weights":[-4.468568E-3,-6.967955E-2,1.4504838E-2,-1.6325234E-2,-4.2848296E-2,-9.849646E-3,3.5489008E-2,-6.791877E-2,1.57615E-2,-1.981529E-2,4.5717717E-3,-2.4834024E-2,4.5536894E-2,-1.4084555E-3,-6.480674E-3,-2.777099E-3,2.671986E-3,2.5145947E-3,-2.2724713E-3,-2.9819275E-3,1.7063303E-3,4.3545715E-3,1.0359695E-3],"categories":[],"categories_nodes":[],"categories_segments":[],"categories_sizes":[],"default_left":[0,0,0,0,0,0,0,0,0,0,0,0,0,0,0,0,0,0,0,0,0,0,0],"id":45,"left_children":[1,3,5,-1,7,9,11,13,15,17,-1,19,21,-1,-1,-1,-1,-1,-1,-1,-1,-1,-1],"loss_changes":[3.4598368E-1,3.1882676E-1,1.1159882E-1,0E0,8.736478E-2,9.048493E-2,7.3177636E-2,6.798653E-2,3.804078E-2,1.0684264E-1,0E0,2.6669867E-2,7.470028E-2,0E0,0E0,0E0,0E0,0E0,0E0,0E0,0E0,0E0,0E0],"parents":[2147483647,0,0,1,1,2,2,4,4,5,5,6,6,7,7,8,8,9,9,11,11,12,12],"right_children":[2,4,6,-1,8,10,12,14,16,18,-1,20,22,-1,-1,-1,-1,-1,-1,-1,-1,-1,-1],"split_conditions":[1E0,-1.3657653E0,-7.546147E-2,-1.6325234E-2,2.154263E-1,1.0648713E0,-9.018694E-1,1.3248216E-1,-8.408033E-1,-1.0687059E0,4.5717717E-3,4.0065098E-1,9.315387E-2,-1.4084555E-3,-6.480674E-3,-2.777099E-3,2.671986E-3,2.5145947E-3,-2.2724713E-3,-2.9819275E-3,1.7063303E-3,4.3545715E-3,1.0359695E-3],"split_indices":[0,417,436,0,357,209,292,418,276,113,0,118,358,0,0,0,0,0,0,0,0,0,0],"split_type":[0,0,0,0,0,0,0,0,0,0,0,0,0,0,0,0,0,0,0,0,0,0,0],"sum_hessian":[2.76E2,6.1E1,2.15E2,5E0,5.6E1,1E2,1.15E2,3.9E1,1.7E1,9.1E1,9E0,1.6E1,9.9E1,2E1,1.9E1,5E0,1.2E1,2E1,7.1E1,1.1E1,5E0,4.9E1,5E1],"tree_param":{"num_deleted":"0","num_feature":"455","num_nodes":"23","size_leaf_vector":"1"}},{"base_weights":[-1.7944897E-3,-3.062166E-2,3.901141E-2,-8.14855E-2,1.6634172E-3,4.5347843E-2,-3.2344293E-3,-4.6084322E-2,-2.0510766E-1,2.2703195E-2,-4.7540292E-2,4.83249E-3,5.924848E-2,-3.8836065E-3,1.9068094E-3,-2.0080121E-2,9.38579E-5,2.197011E-3,-2.6361716E-3,-7.3675523E-3,1.4190532E-4,-2.1563335E-3,2.2704238E-3,4.3076463E-3,7.640241E-4],"categories":[],"categories_nodes":[],"categories_segments":[],"categories_sizes":[],"default_left":[0,0,0,0,0,0,0,0,0,0,0,0,0,0,0,0,0,0,0,0,0,0,0,0,0],"id":46,"left_children":[1,3,5,7,9,11,-1,13,15,17,19,21,23,-1,-1,-1,-1,-1,-1,-1,-1,-1,-1,-1,-1],"loss_changes":[3.1528994E-1,2.5808758E-1,7.024288E-2,2.4805409E-1,1.0361167E-1,5.856222E-2,0E0,7.66933E-2,3.491432E-1,6.812145E-2,1.1324559E-1,4.1747443E-2,4.3689013E-2,0E0,0E0,0E0,0E0,0E0,0E0,0E0,0E0,0E0,0E0,0E0,0E0],"parents":[2147483647,0,0,1,1,2,2,3,3,4,4,5,5,7,7,8,8,9,9,10,10,11,11,12,12],"right_children":[2,4,6,8,10,12,-1,14,16,18,20,22,24,-1,-1,-1,-1,-1,-1,-1,-1,-1,-1,-1,-1],"split_conditions":[3E0,5.4510384E0,1.2391735E0,7.9278475E-1,4.5928738E-1,-5.1914495E-1,-3.2344293E-3,8.154169E-1,7.3099E-1,1.4068333E0,-2.0704578E-1,-6.909491E-2,9.5440423E-1,-3.8836065E-3,1.9068094E-3,-2.0080121E-2,9.38579E-5,2.197011E-3,-2.6361716E-3,-7.3675523E-3,1.4190532E-4,-2.1563335E-3,2.2704238E-3,4.3076463E-3,7.640241E-4],"split_indices":[0,2,300,117,238,290,0,375,111,302,226,386,281,0,0,0,0,0,0,0,0,0,0,0,0],"split_type":[0,0,0,0,0,0,0,0,0,0,0,0,0,0,0,0,0,0,0,0,0,0,0,0,0],"sum_hessian":[2.64E2,1.55E2,1.09E2,5.9E1,9.6E1,1.03E2,6E0,4.8E1,1.1E1,6.8E1,2.8E1,2.7E1,7.6E1,3.9E1,9E0,6E0,5E0,5.7E1,1.1E1,1E1,1.8E1,1.2E1,1.5E1,5.9E1,1.7E1],"tree_param":{"num_deleted":"0","num_feature":"455","num_nodes":"25","size_leaf_vector":"1"}},{"base_weights":[2.081679E-4,-2.143348E-2,3.191656E-2,7.0266094E-4,-6.232723E-2,-1.0401797E-2,4.61108E-2,-2.4941104E-2,3.330824E-2,-2.9608295E-3,-9.632844E-2,4.49555E-3,-3.660588E-2,6.8211414E-2,2.042012E-2,-4.965666E-4,-7.3717223E-3,4.0126955E-3,-1.8948867E-4,2.767621E-3,-2.847873E-3,-9.496508E-3,-3.5945296E-3,-7.471713E-4,-5.088264E-3,1.2788816E-3,5.071791E-3,1.945467E-4,4.0721465E-3],"categories":[],"categories_nodes":[],"categories_segments":[],"categories_sizes":[],"default_left":[0,0,0,0,0,0,0,0,0,0,0,0,0,0,0,0,0,0,0,0,0,0,0,0,0,0,0,0,0],"id":47,"left_children":[1,3,5,7,9,11,13,15,17,19,21,-1,23,25,27,-1,-1,-1,-1,-1,-1,-1,-1,-1,-1,-1,-1,-1,-1],"loss_changes":[1.7086497E-1,1.340616E-1,6.162765E-2,8.360221E-2,1.04393095E-1,6.585562E-2,4.0365487E-2,8.935006E-2,5.428621E-2,5.0255224E-2,5.548629E-2,0E0,2.3498962E-2,2.7007774E-2,3.0532284E-2,0E0,0E0,0E0,0E0,0E0,0E0,0E0,0E0,0E0,0E0,0E0,0E0,0E0,0E0],"parents":[2147483647,0,0,1,1,2,2,3,3,4,4,5,5,6,6,7,7,8,8,9,9,10,10,12,12,13,13,14,14],"right_children":[2,4,6,8,10,12,14,16,18,20,22,-1,24,26,28,-1,-1,-1,-1,-1,-1,-1,-1,-1,-1,-1,-1,-1,-1],"split_conditions":[3E0,4.512259E-1,-6.276673E-1,-8.236939E-2,-1.3081898E-1,-9.9288654E-1,1.5606292E-1,1.1214743E0,-1.394693E-1,-1.53353E-1,-3.733458E-1,4.49555E-3,5.625644E-1,-6.2173307E-1,7.532483E-1,-4.965666E-4,-7.3717223E-3,4.0126955E-3,-1.8948867E-4,2.767621E-3,-2.847873E-3,-9.496508E-3,-3.5945296E-3,-7.471713E-4,-5.088264E-3,1.2788816E-3,5.071791E-3,1.945467E-4,4.0721465E-3],"split_indices":[0,246,412,410,268,281,76,315,92,366,205,0,90,186,413,0,0,0,0,0,0,0,0,0,0,0,0,0,0],"split_type":[0,0,0,0,0,0,0,0,0,0,0,0,0,0,0,0,0,0,0,0,0,0,0,0,0,0,0,0,0],"sum_hessian":[2.45E2,1.46E2,9.9E1,9.6E1,5E1,2.5E1,7.4E1,5.4E1,4.2E1,1.9E1,3.1E1,5E0,2E1,3.8E1,3.6E1,4.8E1,6E0,2.1E1,2.1E1,9E0,1E1,9E0,2.2E1,1.5E1,5E0,1.1E1,2.7E1,2.8E1,8E0],"tree_param":{"num_deleted":"0","num_feature":"455","num_nodes":"29","size_leaf_vector":"1"}},{"base_weights":[-4.0194476E-3,-7.115361E-2,1.3685902E-2,-1.5024553E-2,-4.3211684E-2,-4.4487197E-2,2.4705753E-2,-1.0775717E-2,-8.351421E-2,-7.7641536E-3,-8.405346E-3,7.3590025E-2,1.5313891E-2,-3.5767434E-3,7.441429E-4,-6.4320564E-3,-1.2768542E-4,-1.6895363E-3,2.5847983E-3,-2.5648458E-4,5.453332E-3,6.682828E-5,2.8607224E-3],"categories":[],"categories_nodes":[],"categories_segments":[],"categories_sizes":[],"default_left":[0,0,0,0,0,0,0,0,0,0,0,0,0,0,0,0,0,0,0,0,0,0,0],"id":48,"left_children":[1,3,5,-1,7,9,11,13,15,-1,17,19,21,-1,-1,-1,-1,-1,-1,-1,-1,-1,-1],"loss_changes":[3.1336966E-1,2.5383988E-1,1.3617948E-1,0E0,6.3562736E-2,1.0199737E-1,7.9009324E-2,3.5436913E-2,4.1954696E-2,0E0,2.8868692E-2,3.8492218E-2,6.929084E-2,0E0,0E0,0E0,0E0,0E0,0E0,0E0,0E0,0E0,0E0],"parents":[2147483647,0,0,1,1,2,2,4,4,5,5,6,6,7,7,8,8,10,10,11,11,12,12],"right_children":[2,4,6,-1,8,10,12,14,16,-1,18,20,22,-1,-1,-1,-1,-1,-1,-1,-1,-1,-1],"split_conditions":[1E0,-1.3657653E0,4.1431346E0,-1.5024553E-2,2.63298E-1,-7.5684536E-1,-9.059691E-1,-1.250129E0,4.9514464E-1,-7.7641536E-3,2.3061432E-1,-1.2778786E0,6.056784E0,-3.5767434E-3,7.441429E-4,-6.4320564E-3,-1.2768542E-4,-1.6895363E-3,2.5847983E-3,-2.5648458E-4,5.453332E-3,6.682828E-5,2.8607224E-3],"split_indices":[0,417,2,0,418,436,368,72,256,0,225,269,2,0,0,0,0,0,0,0,0,0,0],"split_type":[0,0,0,0,0,0,0,0,0,0,0,0,0,0,0,0,0,0,0,0,0,0,0],"sum_hessian":[2.6E2,5.3E1,2.07E2,5E0,4.8E1,3.2E1,1.75E2,2.8E1,2E1,8E0,2.4E1,2.6E1,1.49E2,8E0,2E1,1.5E1,5E0,1.8E1,6E0,5E0,2.1E1,1.05E2,4.4E1],"tree_param":{"num_deleted":"0","num_feature":"455","num_nodes":"23","size_leaf_vector":"1"}},{"base_weights":[-7.057266E-3,2.522184E-3,-1.0267036E-1,-2.0482691E-2,2.7182791E-2,-1.8067823E-1,-2.8664332E-3,-7.807581E-2,-5.426279E-3,4.4762984E-2,-1.4034629E-2,-1.6181186E-2,-4.2779353E-3,-2.1541868E-3,1.6054362E-3,-9.180437E-3,-9.598572E-4,-1.0143907E-3,2.9352445E-3,3.5732016E-3,-1.063729E-3,-2.1655902E-3,2.0363068E-3],"categories":[],"categories_nodes":[],"categories_segments":[],"categories_sizes":[],"default_left":[0,0,0,0,0,0,0,0,0,0,0,0,0,0,0,0,0,0,0,0,0,0,0],"id":49,"left_children":[1,3,5,7,9,11,13,15,17,19,21,-1,-1,-1,-1,-1,-1,-1,-1,-1,-1,-1,-1],"loss_changes":[2.5148022E-1,1.4350942E-1,1.9360152E-1,1.1274877E-1,8.965891E-2,9.7842485E-2,1.4644032E-2,1.20697945E-1,6.7789316E-2,8.159946E-2,4.2662106E-2,0E0,0E0,0E0,0E0,0E0,0E0,0E0,0E0,0E0,0E0,0E0,0E0],"parents":[2147483647,0,0,1,1,2,2,3,3,4,4,5,5,6,6,7,7,8,8,9,9,10,10],"right_children":[2,4,6,8,10,12,14,16,18,20,22,-1,-1,-1,-1,-1,-1,-1,-1,-1,-1,-1,-1],"split_conditions":[1.2495543E0,5.7004437E0,2E0,1E0,3.7809908E-1,-2.3481213E-1,8.9082345E-2,-2.6435949E-2,1.1675997E0,8.865365E-1,5.024284E-1,-1.6181186E-2,-4.2779353E-3,-2.1541868E-3,1.6054362E-3,-9.180437E-3,-9.598572E-4,-1.0143907E-3,2.9352445E-3,3.5732016E-3,-1.063729E-3,-2.1655902E-3,2.0363068E-3],"split_indices":[293,2,0,0,270,343,97,215,294,308,439,0,0,0,0,0,0,0,0,0,0,0,0],"split_type":[0,0,0,0,0,0,0,0,0,0,0,0,0,0,0,0,0,0,0,0,0,0,0],"sum_hessian":[2.72E2,2.49E2,2.3E1,1.29E2,1.2E2,1.2E1,1.1E1,2.5E1,1.04E2,8.4E1,3.6E1,5E0,7E0,5E0,6E0,1E1,1.5E1,8.7E1,1.7E1,6.8E1,1.6E1,2.5E1,1.1E1],"tree_param":{"num_deleted":"0","num_feature":"455","num_nodes":"23","size_leaf_vector":"1"}},{"base_weights":[-3.615609E-3,-6.7722365E-2,1.1682339E-2,-1.4676624E-2,-3.719657E-2,8.258779E-4,6.4109355E-2,2.4949312E-2,-6.687208E-2,2.3350153E-2,-2.2229083E-2,9.815188E-2,3.633298E-2,3.1513337E-3,-1.5304756E-3,-1.029412E-3,-6.680129E-3,-2.7921416E-3,2.181467E-3,-6.090918E-4,-9.544992E-3,7.0212693E-3,2.589142E-3,4.1768333E-5,3.5485756E-3],"categories":[],"categories_nodes":[],"categories_segments":[],"categories_sizes":[],"default_left":[0,0,0,0,0,0,0,0,0,0,0,0,0,0,0,0,0,0,0,0,0,0,0,0,0],"id":50,"left_children":[1,3,5,-1,7,9,11,13,15,17,19,21,23,-1,-1,-1,-1,-1,-1,-1,-1,-1,-1,-1,-1],"loss_changes":[2.5460342E-1,2.517851E-1,1.19420186E-1,0E0,8.632631E-2,9.243426E-2,2.6908502E-2,2.4939517E-2,6.470542E-2,8.519831E-2,1.4222206E-1,5.467534E-3,1.861377E-2,0E0,0E0,0E0,0E0,0E0,0E0,0E0,0E0,0E0,0E0,0E0,0E0],"parents":[2147483647,0,0,1,1,2,2,4,4,5,5,6,6,7,7,8,8,9,9,10,10,11,11,12,12],"right_children":[2,4,6,-1,8,10,12,14,16,18,20,22,24,-1,-1,-1,-1,-1,-1,-1,-1,-1,-1,-1,-1],"split_conditions":[1E0,-1.2138675E0,6.317165E0,-1.4676624E-2,1E0,8.776644E-2,1.584769E-1,6.918793E-1,-1.9887646E-1,2.5649493E0,1.4012245E0,8.153055E-3,-1.4051808E-1,3.1513337E-3,-1.5304756E-3,-1.029412E-3,-6.680129E-3,-2.7921416E-3,2.181467E-3,-6.090918E-4,-9.544992E-3,7.0212693E-3,2.589142E-3,4.1768333E-5,3.5485756E-3],"split_indices":[0,368,2,0,21,110,367,101,335,2,145,384,324,0,0,0,0,0,0,0,0,0,0,0,0],"split_type":[0,0,0,0,0,0,0,0,0,0,0,0,0,0,0,0,0,0,0,0,0,0,0,0,0],"sum_hessian":[2.56E2,4.8E1,2.08E2,5E0,4.3E1,1.74E2,3.4E1,1.4E1,2.9E1,8.8E1,8.6E1,1.3E1,2.1E1,9E0,5E0,1.5E1,1.4E1,1.3E1,7.5E1,8.1E1,5E0,8E0,5E0,9E0,1.2E1],"tree_param":{"num_deleted":"0","num_feature":"455","num_nodes":"25","size_leaf_vector":"1"}},{"base_weights":[-2.5492944E-3,-3.2215748E-2,2.0147987E-2,-1.4039408E-1,-1.735969E-2,9.443097E-3,5.702491E-2,-1.598615E-3,-1.2289635E-2,-7.049234E-3,-7.1338653E-3,-3.7802192E-3,4.5091346E-2,9.528658E-2,2.0815711E-2,-2.3416202E-3,7.8252674E-4,-1.4747189E-3,1.1843403E-3,-1.4257887E-3,3.6096314E-3,1.8506914E-3,7.280308E-3,-6.863958E-4,3.1280266E-3],"categories":[],"categories_nodes":[],"categories_segments":[],"categories_sizes":[],"default_left":[0,0,0,0,0,0,0,0,0,0,0,0,0,0,0,0,0,0,0,0,0,0,0,0,0],"id":51,"left_children":[1,3,5,7,9,11,13,-1,-1,15,-1,17,19,21,23,-1,-1,-1,-1,-1,-1,-1,-1,-1,-1],"loss_changes":[1.7098182E-1,1.7190704E-1,5.5768955E-2,8.436626E-2,1.019672E-1,5.4079145E-2,4.0366657E-2,0E0,0E0,6.0125824E-2,0E0,4.2549167E-2,3.502421E-2,1.7697081E-2,2.0386314E-2,0E0,0E0,0E0,0E0,0E0,0E0,0E0,0E0,0E0,0E0],"parents":[2147483647,0,0,1,1,2,2,3,3,4,4,5,5,6,6,9,9,11,11,12,12,13,13,14,14],"right_children":[2,4,6,8,10,12,14,-1,-1,16,-1,18,20,22,24,-1,-1,-1,-1,-1,-1,-1,-1,-1,-1],"split_conditions":[2E0,-1.4203368E0,9.1418064E-1,-4.608039E-1,1.2372231E0,6.0450053E0,-5.7058483E-1,-1.598615E-3,-1.2289635E-2,-4.8710188E-1,-7.1338653E-3,6.492801E-2,-9.944471E-1,-7.0987195E-1,2.968876E-1,-2.3416202E-3,7.8252674E-4,-1.4747189E-3,1.1843403E-3,-1.4257887E-3,3.6096314E-3,1.8506914E-3,7.280308E-3,-6.863958E-4,3.1280266E-3],"split_indices":[0,164,429,179,293,2,171,0,0,257,0,169,438,180,222,0,0,0,0,0,0,0,0,0,0],"split_type":[0,0,0,0,0,0,0,0,0,0,0,0,0,0,0,0,0,0,0,0,0,0,0,0,0],"sum_hessian":[2.5E2,1.08E2,1.42E2,1.1E1,9.7E1,1.12E2,3E1,5E0,6E0,9E1,7E0,8.3E1,2.9E1,1.3E1,1.7E1,3.4E1,5.6E1,4.4E1,3.9E1,5E0,2.4E1,5E0,8E0,9E0,8E0],"tree_param":{"num_deleted":"0","num_feature":"455","num_nodes":"25","size_leaf_vector":"1"}},{"base_weights":[1.8474712E-3,7.1147494E-3,-9.951028E-3,-1.1395817E-2,3.155396E-2,-3.259983E-2,1.1302746E-2,1.6470682E-2,8.422982E-2,-7.893281E-4,-4.7478564E-3,-8.4636174E-4,2.868926E-3,4.230953E-4,4.8673335E-3,2.0910818E-3,6.0277176E-3],"categories":[],"categories_nodes":[],"categories_segments":[],"categories_sizes":[],"default_left":[0,0,0,0,0,0,0,0,0,0,0,0,0,0,0,0,0],"id":52,"left_children":[1,3,-1,5,7,9,11,13,15,-1,-1,-1,-1,-1,-1,-1,-1],"loss_changes":[2.32021E-1,1.1562461E-1,0E0,7.100683E-2,8.462305E-2,6.668033E-2,6.8146445E-2,5.24443E-2,1.2233958E-2,0E0,0E0,0E0,0E0,0E0,0E0,0E0,0E0],"parents":[2147483647,0,0,1,1,3,3,4,4,5,5,6,6,7,7,8,8],"right_children":[2,4,-1,6,8,10,12,14,16,-1,-1,-1,-1,-1,-1,-1,-1],"split_conditions":[1.9058558E0,3E0,-9.951028E-3,-7.52484E-2,8.3878124E-1,7.4877167E-1,-1.4137275E-2,8.476908E-1,-1.20062985E-1,-7.893281E-4,-4.7478564E-3,-8.4636174E-4,2.868926E-3,4.230953E-4,4.8673335E-3,2.0910818E-3,6.0277176E-3],"split_indices":[117,0,0,410,115,216,448,95,377,0,0,0,0,0,0,0,0],"split_type":[0,0,0,0,0,0,0,0,0,0,0,0,0,0,0,0,0],"sum_hessian":[2.58E2,2.52E2,6E0,1.44E2,1.08E2,7.4E1,7E1,8.6E1,2.2E1,5.4E1,2E1,4.2E1,2.8E1,7.7E1,9E0,7E0,1.5E1],"tree_param":{"num_deleted":"0","num_feature":"455","num_nodes":"17","size_leaf_vector":"1"}},{"base_weights":[-3.408882E-4,-2.9174278E-2,2.21537E-2,-1.7075626E-2,-8.559397E-3,4.834836E-2,1.0368212E-2,-4.2787433E-2,2.2268247E-2,7.0221186E-2,-1.440838E-3,-2.9261848E-2,2.0847682E-2,-1.7731074E-3,-8.754095E-3,-9.111092E-4,4.1238507E-3,1.0986171E-3,5.3365165E-3,-1.5184801E-3,2.1885824E-3,-3.4310305E-3,6.0847357E-5,-5.426961E-4,2.1045064E-3],"categories":[],"categories_nodes":[],"categories_segments":[],"categories_sizes":[],"default_left":[0,0,0,0,0,0,0,0,0,0,0,0,0,0,0,0,0,0,0,0,0,0,0,0,0],"id":53,"left_children":[1,3,5,7,-1,9,11,13,15,17,19,21,23,-1,-1,-1,-1,-1,-1,-1,-1,-1,-1,-1,-1],"loss_changes":[1.7317036E-1,1.5576716E-1,4.5304954E-2,1.11158624E-1,0E0,5.0297752E-2,4.5242097E-2,8.145229E-2,7.86554E-2,2.7840868E-2,1.632591E-2,1.9559389E-2,3.6784574E-2,0E0,0E0,0E0,0E0,0E0,0E0,0E0,0E0,0E0,0E0,0E0,0E0],"parents":[2147483647,0,0,1,1,2,2,3,3,5,5,6,6,7,7,8,8,9,9,10,10,11,11,12,12],"right_children":[2,4,6,8,-1,10,12,14,16,18,20,22,24,-1,-1,-1,-1,-1,-1,-1,-1,-1,-1,-1,-1],"split_conditions":[2E0,1.3301139E0,-6.496045E-1,3.4064326E-1,-8.559397E-3,6.8617266E-1,-1.0354886E0,1.2654668E0,1.3627864E-1,-6.181141E-1,7.478335E-2,-8.90381E-2,-6.16756E-1,-1.7731074E-3,-8.754095E-3,-9.111092E-4,4.1238507E-3,1.0986171E-3,5.3365165E-3,-1.5184801E-3,2.1885824E-3,-3.4310305E-3,6.0847357E-5,-5.426961E-4,2.1045064E-3],"split_indices":[0,447,361,114,0,368,451,213,127,106,155,87,276,0,0,0,0,0,0,0,0,0,0,0,0],"split_type":[0,0,0,0,0,0,0,0,0,0,0,0,0,0,0,0,0,0,0,0,0,0,0,0,0],"sum_hessian":[2.63E2,1.15E2,1.48E2,1.06E2,9E0,4.4E1,1.04E2,6.4E1,4.2E1,3E1,1.4E1,2.1E1,8.3E1,5.9E1,5E0,2.4E1,1.8E1,9E0,2.1E1,9E0,5E0,1E1,1.1E1,2.7E1,5.6E1],"tree_param":{"num_deleted":"0","num_feature":"455","num_nodes":"25","size_leaf_vector":"1"}},{"base_weights":[-4.0692356E-3,4.895702E-4,-9.312124E-3,-1.8159857E-2,2.702678E-2,-8.574082E-3,-1.0840104E-1,-2.1026889E-2,3.55627E-2,1.4738371E-3,-1.4386484E-3,-1.5753064E-3,-1.1686837E-2,7.544474E-4,-3.0253516E-3,3.1634518E-3,1.00291894E-4],"categories":[],"categories_nodes":[],"categories_segments":[],"categories_sizes":[],"default_left":[0,0,0,0,0,0,0,0,0,0,0,0,0,0,0,0,0],"id":54,"left_children":[1,3,-1,5,7,9,11,13,15,-1,-1,-1,-1,-1,-1,-1,-1],"loss_changes":[1.8824495E-1,1.3312091E-1,0E0,1.3481611E-1,4.7025785E-2,7.51915E-2,9.620802E-2,1.9047055E-2,5.5077948E-2,0E0,0E0,0E0,0E0,0E0,0E0,0E0,0E0],"parents":[2147483647,0,0,1,1,3,3,4,4,5,5,6,6,7,7,8,8],"right_children":[2,4,-1,6,8,10,12,14,16,-1,-1,-1,-1,-1,-1,-1,-1],"split_conditions":[1.9072498E0,3E0,-9.312124E-3,1.3936636E0,-1.0304307E0,-4.307515E-1,5.0018513E-1,5.428692E-2,3.4431833E-1,1.4738371E-3,-1.4386484E-3,-1.5753064E-3,-1.1686837E-2,7.544474E-4,-3.0253516E-3,3.1634518E-3,1.00291894E-4],"split_indices":[117,0,0,298,95,261,113,90,277,0,0,0,0,0,0,0,0],"split_type":[0,0,0,0,0,0,0,0,0,0,0,0,0,0,0,0,0],"sum_hessian":[2.71E2,2.65E2,6E0,1.56E2,1.09E2,1.43E2,1.3E1,1.6E1,9.3E1,4.5E1,9.8E1,8E0,5E0,8E0,8E0,6.1E1,3.2E1],"tree_param":{"num_deleted":"0","num_feature":"455","num_nodes":"17","size_leaf_vector":"1"}},{"base_weights":[-3.3086804E-3,-8.668985E-2,3.1307074E-3,-4.911995E-3,-1.4229575E-2,3.928496E-2,-4.8019034E-3,1.2199449E-3,-1.9250375E-3,5.3827636E-2,-2.7040492E-3,3.591699E-3,-4.969677E-2,3.8776088E-3,-1.0254192E-3,6.589075E-4,-2.639534E-3,-1.5025433E-3,-7.413774E-3],"categories":[],"categories_nodes":[],"categories_segments":[],"categories_sizes":[],"default_left":[0,0,0,0,0,0,0,0,0,0,0,0,0,0,0,0,0,0,0],"id":55,"left_children":[1,3,5,7,-1,9,11,-1,-1,13,-1,15,17,-1,-1,-1,-1,-1,-1],"loss_changes":[1.498076E-1,2.43772E-1,7.494466E-2,1.1593792E-2,0E0,6.250713E-2,8.137537E-2,0E0,0E0,3.360907E-2,0E0,6.531812E-2,5.5729583E-2,0E0,0E0,0E0,0E0,0E0,0E0],"parents":[2147483647,0,0,1,1,2,2,3,3,5,5,6,6,9,9,11,11,12,12],"right_children":[2,4,6,8,-1,10,12,-1,-1,14,-1,16,18,-1,-1,-1,-1,-1,-1],"split_conditions":[-1.4689524E0,7.5426173E-1,-1.0687059E0,1.11814946E-1,-1.4229575E-2,9.5132244E-1,1.1171662E0,1.2199449E-3,-1.9250375E-3,9.7255945E-1,-2.7040492E-3,1.1722354E0,3.2141265E-1,3.8776088E-3,-1.0254192E-3,6.589075E-4,-2.639534E-3,-1.5025433E-3,-7.413774E-3],"split_indices":[260,255,113,374,0,380,165,0,0,192,0,92,440,0,0,0,0,0,0],"split_type":[0,0,0,0,0,0,0,0,0,0,0,0,0,0,0,0,0,0,0],"sum_hessian":[2.76E2,1.8E1,2.58E2,1.3E1,5E0,4.5E1,2.13E2,7E0,6E0,3.9E1,6E0,1.81E2,3.2E1,3.4E1,5E0,1.58E2,2.3E1,2.6E1,6E0],"tree_param":{"num_deleted":"0","num_feature":"455","num_nodes":"19","size_leaf_vector":"1"}},{"base_weights":[-5.3594154E-3,-5.3440515E-2,7.6801185E-3,-2.7927518E-2,-1.0998224E-2,1.4678403E-2,-4.3244477E-2,-4.2365063E-3,-7.7741355E-2,2.479193E-2,-1.4024339E-2,-1.1500631E-2,-7.567227E-3,1.7165826E-3,-1.8253693E-3,-6.0542636E-3,-1.1478281E-3,2.883326E-3,3.8602244E-4,1.3550069E-3,-2.161661E-3,-2.0922304E-3,9.650881E-4],"categories":[],"categories_nodes":[],"categories_segments":[],"categories_sizes":[],"default_left":[0,0,0,0,0,0,0,0,0,0,0,0,0,0,0,0,0,0,0,0,0,0,0],"id":56,"left_children":[1,3,5,7,-1,9,11,13,15,17,19,21,-1,-1,-1,-1,-1,-1,-1,-1,-1,-1,-1],"loss_changes":[1.6759093E-1,1.7861398E-1,7.646671E-2,5.834831E-2,0E0,5.497886E-2,6.5499924E-2,3.2705147E-2,1.7861009E-2,5.8745302E-2,4.190195E-2,1.4659799E-2,0E0,0E0,0E0,0E0,0E0,0E0,0E0,0E0,0E0,0E0,0E0],"parents":[2147483647,0,0,1,1,2,2,3,3,5,5,6,6,7,7,8,8,9,9,10,10,11,11],"right_children":[2,4,6,8,-1,10,12,14,16,18,20,22,-1,-1,-1,-1,-1,-1,-1,-1,-1,-1,-1],"split_conditions":[1E0,1.1063701E0,1.1982224E0,3.8742882E-1,-1.0998224E-2,7.606885E-1,